
\data\
ngram 1=7203
ngram 2=29205
ngram 3=19338

\1-grams:
-3.84166	!	-0.1477254
-4.284798	!!"	-0.1427003
-2.20969	!=	-0.888272
-2.294594	"	-0.5969689
-4.284798	"!/"	-0.1427003
-4.284798	"!/log4j.xml"	-0.1427003
-3.672694	""	-0.1721554
-4.284798	"#123456"	-0.1427003
-4.284798	"#23856"	-0.1427003
-4.284798	"#params	-0.1427003
-4.284798	"${"	-0.1427003
-4.284798	"${p1}"	-0.1427003
-4.284798	"${p2}"	-0.1427003
-4.284798	"%,	-0.1427003
-4.284798	"%3D"	-0.1427003
-4.284798	"%C"	-0.1427003
-4.284798	"%C:%L	-0.1427003
-4.284798	"%bogus"	-0.1427003
-4.284798	"%d{HH:mm:ss}{GMT}	-0.1427003
-4.284798	"%m	-0.1427002
-4.284798	"%m"	-0.1427003
-4.180058	"%m%n"	-0.1427003
-4.284798	"%m%n%throwable"	-0.1427003
-4.284798	"%m%n%throwable{"	-0.1427003
-4.284798	"%m%n%throwable{0}"	-0.1427003
-4.284798	"%m%n%throwable{100}"	-0.1427003
-4.284798	"%m%n%throwable{1}"	-0.1427003
-4.284798	"%m%n%throwable{none}"	-0.1427003
-4.284798	"%m%n%throwable{short}"	-0.1427003
-4.284798	"%m\n"	-0.1427003
-4.284798	"%more"	-0.1427003
-4.284798	"%n343"	-0.1427003
-4.284798	"%p	-0.1427003
-4.180058	"%r	-0.1497217
-4.284798	"%relative	-0.1427003
-4.284798	"%throwable,	-0.1427003
-4.284798	"%throwable{-n},	-0.1427003
-4.284798	"%throwable{0},	-0.1427003
-4.284798	"%throwable{100},	-0.1427003
-4.284798	"%throwable{1},	-0.1427003
-4.284798	"%throwable{none},	-0.1427003
-4.284798	"%throwable{short},	-0.1427003
-4.284798	"%z343"	-0.1427003
-4.284798	"&amp;"	-0.1427003
-4.284798	"&data;\n"	-0.1427003
-4.284798	"&gt;"	-0.1427003
-4.284798	"&lt;"	-0.1427003
-4.284798	"&nbsp;&nbsp;<b>NDC:</b>	-0.1427003
-4.284798	"&nbsp;&nbsp;<b>Priority:</b>	-0.1427003
-4.284798	"&nbsp;&nbsp;<b>Thread:</b>	-0.1427003
-4.284798	"&quot;"	-0.1427003
-4.284798	"'	-0.1427003
-4.284798	"'"	-0.1427003
-4.284798	"',	-0.1427003
-4.284798	"'.'yyyy"	-0.1427003
-4.284798	"'.'yyyy-MM"	-0.1427003
-4.180058	"'.'yyyy-MM-dd"	-0.1427003
-4.284798	"'.'yyyy-MM-dd-HH"	-0.1427003
-4.180058	"'.'yyyy-MM-dd-HH-mm"	-0.1427003
-4.284798	"'.'yyyy-MM-dd-a"	-0.1427003
-4.284798	"'.'yyyy-w"	-0.1427003
-4.284798	"'.'yyyy-ww"	-0.1427003
-4.284798	"'foo'	-0.1427003
-4.284798	"'log'HH'log'"	-0.1427003
-4.284798	"'{0}'"	-0.1427003
-4.180058	"("	-0.1427003
-4.284798	"(Note:	-0.1427003
-4.284798	"(TRACE|DEBUG|INFO	-0.1427003
-4.284798	"(X)"	-0.1427003
-4.284798	")	-0.1427002
-4.180058	")"	-0.1461968
-4.284798	")."	-0.1427003
-4.180058	"+05:00"	-0.1473686
-4.121988	",	-0.1521482
-3.959588	","	-0.1454952
-4.284798	",layout"	-0.1427003
-4.284798	",layout="	-0.1427003
-4.180058	"-	-0.1427003
-4.284798	"-"	-0.1427003
-4.284798	"---------------------------\n"	-0.1427003
-4.284798	"----name="	-0.1427003
-4.284798	"---Adding	-0.1427003
-4.284798	"-->"	-0.1427003
-4.284798	"-//APACHE//DTD	-0.1427003
-4.284798	"-01-"	-0.1427003
-4.284798	"-02-"	-0.1427003
-4.284798	"-03-"	-0.1427003
-4.284798	"-04-"	-0.1427003
-4.284798	"-05-"	-0.1427003
-4.284798	"-06-"	-0.1427003
-4.284798	"-07-"	-0.1427003
-4.284798	"-08-"	-0.1427003
-4.284798	"-09-"	-0.1427003
-4.284798	"-1"	-0.1427003
-4.284798	"-10-"	-0.1427003
-4.284798	"-11-"	-0.1427003
-4.284798	"-12-"	-0.1427003
-4.284798	"-NA-"	-0.1427003
-4.284798	".	-0.1427003
-4.121988	"."	-0.1760653
-4.284798	".*	-0.1427003
-4.180058	"..."	-0.1473686
-4.284798	".4"	-0.1427003
-4.284798	".DUMP"	-0.1427003
-4.284798	".INNER"	-0.1427003
-4.284798	".OUTER"	-0.1427003
-4.284798	".SWAP"	-0.1427003
-4.284798	".\n	-0.1427003
-4.284798	".auth"	-0.1427003
-4.284798	".errorhandler"	-0.1427003
-4.284798	".filter."	-0.1427003
-4.284798	".host"	-0.1427003
-4.180058	".layout"	-0.1473686
-4.284798	".lcf"	-0.1427003
-4.284798	".port"	-0.1427003
-4.284798	".properties"	-0.1427003
-4.180058	".xml"	-0.1497217
-4.121988	"/"	-0.1454952
-4.284798	"//"	-0.1427003
-4.284798	"/>\r\n"	-0.1427003
-4.284798	"/\\(.*:\\d{1,4}\\)/"	-0.1427003
-4.284798	"/\\(Method.java:.*\\)/"	-0.1427003
-4.284798	"/\\sat	-0.1427003
-4.284798	"/at	-0.1427002
-4.284798	"/examples/lf5/InitUsingMultipleAppenders/example.properties"	-0.1427003
-4.284798	"/examples/lf5/InitUsingPropertiesFile/example.properties"	-0.1427003
-4.284798	"/examples/lf5/InitUsingXMLPropertiesFile/example.xml"	-0.1427003
-4.284798	"/examples/lf5/UsingSocketAppenders/socketclient.properties"	-0.1427003
-4.284798	"/line=\"?\"/"	-0.1427003
-4.284798	"/line=\"\\d{1,3}\"/"	-0.1427003
-4.284798	"/org/apache/log4j/lf5/config/defaultconfig.properties"	-0.1427003
-4.284798	"/org/apache/log4j/lf5/viewer/images/channelexplorer_satellite.gif"	-0.1427003
-4.284798	"/org/apache/log4j/lf5/viewer/images/lf5_small_icon.gif"	-0.1427003
-4.284798	"/org/apache/log4j/xml/log4j.dtd"	-0.1427003
-4.284798	"/timestamp=\"\\d{10,13}\"/"	-0.1427003
-4.284798	"0"	-0.1427003
-4.284798	"000"	-0.1427003
-4.284798	"00:00:00,000	-0.1427003
-4.284798	"00:00:00,000"	-0.1427003
-4.284798	"00:00:00,008"	-0.1427003
-4.284798	"00:00:00,016"	-0.1427003
-4.284798	"00:00:00,017"	-0.1427003
-4.284798	"00:00:00,023"	-0.1427003
-4.284798	"00:00:00,120	-0.1427003
-4.284798	"00:00:00,237"	-0.1427003
-4.284798	"00:00:00,245"	-0.1427003
-4.284798	"00:00:01,415"	-0.1427003
-4.284798	"00:00:01,423"	-0.1427003
-4.180058	"0123456789"	-0.1427003
-4.284798	"1"	-0.1427003
-4.284798	"1."	-0.1427003
-4.284798	"1.*.2"	-0.1427003
-4.284798	"1.1."	-0.1427003
-4.284798	"10"	-0.1427003
-4.284798	"11"	-0.1427003
-4.284798	"12"	-0.1427003
-4.284798	"127.0.0.1:1514"	-0.1427003
-4.284798	"14"	-0.1427003
-4.284798	"16"	-0.1427003
-4.284798	"18"	-0.1427003
-4.284798	"1970-01-01	-0.1427003
-4.284798	"19:00:00,000"	-0.1427003
-4.284798	"1~."	-0.1427003
-4.284798	"2"	-0.1427003
-4.284798	"2004-07-03	-0.1427003
-4.284798	"2004-07-04	-0.1427003
-4.284798	"24"	-0.1427003
-4.284798	"32"	-0.1427003
-4.284798	"343"	-0.1427003
-4.284798	"41"	-0.1427003
-4.284798	"654"	-0.1427003
-4.284798	"8"	-0.1427003
-4.284798	"9"	-0.1427003
-4.284798	"987"	-0.1427003
-4.284798	":	-0.1427003
-4.121988	":"	-0.1461968
-4.284798	"://"	-0.1427003
-4.284798	"::1"	-0.1427003
-4.284798	":\n"	-0.1427003
-4.284798	":class=["	-0.1427003
-4.284798	":pri=["	-0.1427003
-4.284798	";	-0.1427002
-4.284798	"<!--"	-0.1427003
-4.180058	"<!DOCTYPE	-0.1427002
-4.284798	"<!DOCTYPE"	-0.1427003
-4.284798	"<![CDATA["	-0.1427003
-4.284798	"<"	-0.1427003
-4.284798	"</body>"	-0.1427003
-4.284798	"</body></html>"	-0.1427003
-4.284798	"</configuration>\r\n"	-0.1427003
-4.284798	"</font>"	-0.1427003
-4.284798	"</head>"	-0.1427003
-4.284798	"</log4j:event>\r\n\r\n"	-0.1427003
-4.284798	"</log4j:eventSet>\n"	-0.1427003
-4.284798	"</log4j:properties>\r\n"	-0.1427003
-4.284798	"</strong></font>"	-0.1427003
-4.284798	"</style>"	-0.1427003
-4.284798	"</table>"	-0.1427003
-4.284798	"</td>"	-0.1427003
-4.284798	"</td></tr>"	-0.1427003
-4.284798	"</title>"	-0.1427003
-4.284798	"</tr>"	-0.1427003
-4.284798	"<11>"	-0.1427003
-4.284798	"<11>Mishandled	-0.1427003
-4.284798	"<11>No	-0.1427003
-4.284798	"<14>"	-0.1427003
-4.284798	"<14><!DOCTYPE"	-0.1427003
-4.284798	"<14></table>"	-0.1427003
-4.284798	"<<NONE>>"	-0.1427003
-4.284798	"<>()	-0.1427003
-4.284798	"<?xml	-0.1427003
-4.284798	"<b>Throwable:</b>"	-0.1427003
-4.284798	"<b>Time:</b>	-0.1427003
-4.284798	"<blah	-0.1427003
-4.284798	"<blahKey	-0.1427003
-4.284798	"<body	-0.1427003
-4.284798	"<br/>"	-0.1427003
-4.180058	"<br>"	-0.1461968
-4.284798	"<br>&nbsp;&nbsp;&nbsp;&nbsp;"	-0.1427003
-4.284798	"<br><b>Location:</b>	-0.1427003
-4.284798	"<br><b>Logger:</b>	-0.1427003
-4.284798	"<br><b>Message:</b>"	-0.1427003
-4.284798	"<configuration>\r\n"	-0.1427003
-4.284798	"<envelope><faultstring><![CDATA[The	-0.1427003
-4.284798	"<font	-0.1427002
-4.284798	"<head>"	-0.1427003
-4.284798	"<hr	-0.1427003
-4.284798	"<html>"	-0.1427003
-4.284798	"<log4j:NDC><![CDATA["	-0.1427003
-4.284798	"<log4j:data	-0.1427003
-4.284798	"<log4j:event	-0.1427003
-4.284798	"<log4j:eventSet	-0.1427003
-4.284798	"<log4j:locationInfo	-0.1427003
-4.284798	"<log4j:message><![CDATA["	-0.1427003
-4.284798	"<log4j:properties>\r\n"	-0.1427003
-4.284798	"<log4j:throwable><![CDATA["	-0.1427003
-4.284798	"<pre>{6}</pre>"	-0.1427003
-4.284798	"<pre>{7}</pre>"	-0.1427003
-4.284798	"<style	-0.1427003
-4.284798	"<table	-0.1427003
-4.284798	"<td	-0.1427003
-4.284798	"<td>"	-0.1427003
-4.284798	"<th>Category</th>"	-0.1427003
-4.284798	"<th>File:Line</th>"	-0.1427003
-4.284798	"<th>Level</th>"	-0.1427003
-4.284798	"<th>Message</th>"	-0.1427003
-4.284798	"<th>Thread</th>"	-0.1427003
-4.284798	"<th>Time</th>"	-0.1427003
-4.284798	"<title>"	-0.1427003
-4.180058	"<tr>"	-0.1473686
-4.284798	"<tr><td	-0.1427002
-4.284798	"="	-0.1427003
-4.284798	"===========================\n"	-0.1427003
-4.284798	"=["	-0.1427003
-4.284798	"=\""	-0.1427003
-4.284798	"=false"	-0.1427003
-4.284798	">	-0.1427002
-4.284798	">"	-0.1427003
-3.959588	"?"	-0.2081406
-4.284798	"?:?	-0.1427003
-4.180058	"A	-0.1427002
-4.180058	"A"	-0.1427003
-4.284798	"A1"	-0.1427003
-4.284798	"ABC"	-0.1427003
-4.180058	"ABSOLUTE"	-0.1427003
-4.180058	"ALL"	-0.1473686
-4.284798	"AUTH"	-0.1427002
-4.284798	"AUTHPRIV"	-0.1427002
-4.284798	"About	-0.1427003
-4.284798	"AcceptOnMatch"	-0.1427003
-4.284798	"Adaptor:name=html,port=8082"	-0.1427003
-4.284798	"Adding	-0.1427002
-4.284798	"America/Chicago"	-0.1427003
-4.284798	"Angled"	-0.1427003
-4.284798	"Another	-0.1427003
-4.284798	"Apache"	-0.1427003
-4.284798	"Appender	-0.1427003
-4.284798	"AppenderDynamicMBean():	-0.1427003
-4.180058	"Are	-0.1497217
-4.284798	"Arial"	-0.1427003
-4.284798	"AsyncAppender-Dispatcher-"	-0.1427003
-4.284798	"Attaching	-0.1427003
-4.284798	"Attempted	-0.1427003
-4.284798	"Attempting	-0.1427002
-4.284798	"Attribute	-0.1427003
-4.284798	"AttributeList	-0.1427003
-4.284798	"Average	-0.1427002
-4.284798	"Awake	-0.1427003
-4.284798	"B"	-0.1427003
-4.284798	"Bad	-0.1427003
-4.284798	"Bart:	-0.1427003
-4.284798	"Beginning	-0.1427003
-4.284798	"Bonjour,	-0.1427003
-4.284798	"C"	-0.1427003
-4.284798	"CATEGORY]"	-0.1427003
-4.284798	"CH"	-0.1427003
-4.284798	"CHAINSAW	-0.1427003
-4.284798	"CHAINSAW"	-0.1427003
-4.284798	"CONFIG"	-0.1427003
-4.284798	"CRON"	-0.1427002
-4.284798	"Called	-0.1427003
-4.284798	"Cancel"	-0.1427003
-4.180058	"Cannot	-0.1461968
-4.180058	"Categories"	-0.1427003
-4.180058	"Category	-0.1427002
-4.180058	"Category"	-0.1427003
-4.284798	"Category:	-0.1427003
-4.284798	"CategoryPath:	-0.1427003
-4.180058	"Caught	-0.1427002
-4.284798	"Choose	-0.1427003
-4.284798	"Class	-0.1427002
-4.284798	"Clear	-0.1427003
-4.284798	"Clear"	-0.1427003
-4.284798	"Client	-0.1427003
-4.284798	"Close	-0.1427003
-4.284798	"Close"	-0.1427003
-4.284798	"Closing	-0.1427003
-4.284798	"Collapse	-0.1427003
-4.284798	"Comparable"	-0.1427003
-4.284798	"Compiled	-0.1427003
-4.284798	"Configure	-0.1427003
-4.284798	"Configure"	-0.1427003
-4.284798	"Connected	-0.1427003
-4.284798	"Connection	-0.1427003
-4.284798	"Connector	-0.1427003
-4.284798	"Contains	-0.1427003
-4.284798	"Content-Transfer-Encoding"	-0.1427003
-4.284798	"Content-Type"	-0.1427003
-4.284798	"Continuable	-0.1427003
-4.284798	"Controls:	-0.1427003
-4.284798	"Conversion	-0.1427003
-4.180058	"Could	-0.1497217
-4.284798	"Create	-0.1427003
-4.284798	"Creating	-0.1427002
-4.284798	"Current	-0.1427003
-4.284798	"D'oh!	-0.1427003
-4.284798	"D'oh!!	-0.1427003
-4.284798	"D1"	-0.1427003
-4.284798	"D3"	-0.1427003
-4.284798	"DAEMON"	-0.1427002
-4.284798	"DANGER"	-0.1427003
-4.284798	"DATE"	-0.1427003
-4.284798	"DATE]"	-0.1427003
-4.284798	"DB"	-0.1427003
-4.284798	"DEB"	-0.1427003
-4.284798	"DEBUG	-0.1427003
-4.121988	"DEBUG"	-0.1461968
-4.284798	"DEBUG,	-0.1427003
-4.284798	"DEFAULT"	-0.1427003
-4.284798	"DOM	-0.1427003
-4.284798	"Danger	-0.1427003
-4.180058	"Date"	-0.1473686
-4.180058	"DateFormat"	-0.1427003
-4.284798	"Dear	-0.1427003
-4.284798	"Debug"	-0.1427003
-4.284798	"Default	-0.1427003
-4.284798	"DeliveryMode="	-0.1427003
-4.284798	"Deselect	-0.1427003
-4.284798	"Desired	-0.1427003
-4.284798	"Detailed"	-0.1427003
-4.284798	"Details:	-0.1427003
-4.284798	"Detected	-0.1427002
-4.284798	"Dialog"	-0.1427003
-4.284798	"Did	-0.1427003
-4.284798	"Difference	-0.1427003
-4.284798	"Discarded	-0.1427002
-4.284798	"Dispatcher-"	-0.1427003
-4.284798	"Displaying:	-0.1427003
-4.284798	"Disposing	-0.1427003
-4.284798	"DocumentBuilderFactory	-0.1427003
-4.284798	"Doh	-0.1427003
-4.284798	"Doh!"	-0.1427003
-4.284798	"Don't	-0.1427003
-4.284798	"Done	-0.1427003
-4.284798	"Dump	-0.1427003
-4.284798	"Dumpsville,	-0.1427003
-4.284798	"Dynamic"	-0.1427003
-4.284798	"EEE,	-0.1427003
-4.284798	"ERR"	-0.1427003
-4.180058	"ERROR"	-0.1473686
-4.284798	"Edit"	-0.1427003
-4.284798	"Eep."	-0.1427003
-4.284798	"Either	-0.1427003
-4.284798	"Element	-0.1427003
-4.284798	"Empty	-0.1427003
-4.284798	"Encountered	-0.1427003
-4.284798	"End	-0.1427003
-4.284798	"Entered	-0.1427003
-4.180058	"Error	-0.1427003
-4.284798	"Error"	-0.1427003
-4.284798	"Error:	-0.1427003
-4.284798	"Events:	-0.1427003
-4.284798	"Exception	-0.1427003
-4.284798	"Exit	-0.1427003
-4.284798	"Exit"	-0.1427003
-4.284798	"Exiting	-0.1427003
-4.284798	"Exiting.	-0.1427003
-4.284798	"Expand	-0.1427003
-4.284798	"Expected	-0.1427003
-4.180058	"Expecting	-0.1497217
-4.284798	"ExternallyRolledFileAppender-HUP"	-0.1427003
-4.284798	"F"	-0.1427003
-4.284798	"F3"	-0.1427003
-4.284798	"FALLBACK	-0.1427003
-4.180058	"FATAL"	-0.1473686
-4.284798	"FB:	-0.1427002
-4.284798	"FINE"	-0.1427003
-4.284798	"FINER"	-0.1427003
-4.284798	"FINEST"	-0.1427003
-4.284798	"FIXME"	-0.1427003
-4.284798	"FOOBAR"	-0.1427003
-4.284798	"FR"	-0.1427003
-4.284798	"FTP"	-0.1427002
-4.284798	"Factor"	-0.1427003
-4.284798	"Failed	-0.1427003
-4.284798	"Fatal	-0.1427003
-4.284798	"File	-0.1427003
-4.284798	"File"	-0.1427003
-4.284798	"FileWatchdog"	-0.1427003
-4.284798	"Files	-0.1427003
-4.284798	"Filter	-0.1427002
-4.284798	"Finalizing	-0.1427003
-4.180058	"Find	-0.1427002
-4.284798	"Find"	-0.1427003
-4.284798	"Finished	-0.1427003
-4.284798	"Found	-0.1427003
-4.284798	"Free"	-0.1427003
-4.284798	"Full	-0.1427003
-4.284798	"GB"	-0.1427003
-4.284798	"GMT"	-0.1427003
-4.284798	"GMT+0"	-0.1427003
-4.284798	"GMT+1"	-0.1427003
-4.284798	"GMT-6"	-0.1427003
-4.284798	"Getting	-0.1427003
-4.284798	"Got	-0.1427002
-4.284798	"HH:mm"	-0.1427003
-4.284798	"HH:mm:ss"	-0.1427003
-4.284798	"HH:mm:ss,S"	-0.1427003
-4.284798	"HH:mm:ss,SS"	-0.1427003
-4.284798	"HH:mm:ss,SSS	-0.1427003
-4.180058	"HH:mm:ss,SSS"	-0.1427003
-4.284798	"Handling	-0.1427003
-4.180058	"Hello	-0.1427003
-4.121988	"Hello"	-0.1973883
-4.121988	"Hello,	-0.1461968
-4.284798	"Hello--"	-0.1427003
-4.284798	"Hello---"	-0.1427003
-4.284798	"Hello1"	-0.1427003
-4.284798	"Hello2"	-0.1427003
-4.284798	"Hello3"	-0.1427003
-4.284798	"Hello4"	-0.1427003
-4.284798	"Hello5"	-0.1427003
-4.284798	"Hello6"	-0.1427003
-4.284798	"Help"	-0.1427003
-4.284798	"Hi	-0.1427003
-4.284798	"Hide	-0.1427003
-4.284798	"Hierarchy	-0.1427003
-4.284798	"HierarchyDynamicMBean():	-0.1427003
-4.284798	"Hmmm	-0.1427003
-4.284798	"Homer	-0.1427003
-4.284798	"Homer:	-0.1427003
-4.284798	"I	-0.1427003
-4.284798	"INF"	-0.1427003
-4.284798	"INF.ERR"	-0.1427003
-4.284798	"INF.ERR.UNDEF"	-0.1427003
-4.284798	"INF.UNDEF"	-0.1427003
-4.284798	"INFO	-0.1427003
-4.121988	"INFO"	-0.1461968
-4.284798	"INFO#org.apache.log4j.xml.TOTO"	-0.1427003
-4.284798	"INFO#org.apache.log4j.xml.XLevel"	-0.1427003
-4.284798	"ISO8601"	-0.1427003
-4.284798	"Ignoring	-0.1427003
-4.284798	"In	-0.1427003
-4.284798	"Incorrect	-0.1427003
-4.284798	"Integer"	-0.1427003
-4.284798	"Intentional	-0.1427003
-4.284798	"Invalid	-0.1427003
-4.284798	"Invoking	-0.1427003
-4.121988	"Iteration	-0.1461968
-4.180058	"Iteration0"	-0.1497217
-4.284798	"JToolBar.isRollover"	-0.1427003
-4.284798	"JTree.lineStyle"	-0.1427003
-4.284798	"JUnit4TestAdapter"	-0.1427003
-4.284798	"JmDNS	-0.1427003
-4.284798	"Just	-0.1427003
-4.284798	"KB"	-0.1427003
-4.284798	"KERN"	-0.1427002
-4.284798	"L"	-0.1427003
-4.284798	"L7D"	-0.1427003
-4.284798	"LETHAL"	-0.1427003
-4.284798	"LEVEL	-0.1427002
-4.284798	"LOCAL0"	-0.1427002
-4.180058	"LOCAL1"	-0.1427002
-4.284798	"LOCAL2"	-0.1427002
-4.284798	"LOCAL3"	-0.1427002
-4.284798	"LOCAL4"	-0.1427002
-4.284798	"LOCAL5"	-0.1427002
-4.284798	"LOCAL6"	-0.1427002
-4.284798	"LOCAL7"	-0.1427002
-4.284798	"LOCATION]"	-0.1427003
-4.284798	"LOCal6"	-0.1427003
-4.284798	"LPR"	-0.1427002
-4.284798	"LayoutDynamicMBean():	-0.1427003
-4.284798	"Lazy	-0.1427002
-4.284798	"Level	-0.1427003
-4.180058	"Level"	-0.1473686
-4.284798	"Line	-0.1427003
-4.284798	"Line"	-0.1427003
-4.284798	"Line1"	-0.1427003
-4.284798	"Line1\rLine2\nLine3\r\nLine4\n\rLine6"	-0.1427003
-4.284798	"Line2"	-0.1427003
-4.284798	"Line3"	-0.1427003
-4.284798	"Line4"	-0.1427003
-4.284798	"Line6"	-0.1427003
-4.284798	"Listening	-0.1427003
-4.284798	"Literal"	-0.1427003
-4.284798	"Load	-0.1427003
-4.284798	"Loaded	-0.1427003
-4.284798	"Loading	-0.1427003
-4.284798	"Locating	-0.1427003
-4.180058	"Location"	-0.1427003
-4.284798	"LocationInfo	-0.1427002
-4.284798	"LocationInfo"	-0.1427003
-4.284798	"LocationInfoTest.java"	-0.1427003
-4.284798	"Locked	-0.1427003
-4.284798	"Log	-0.1427003
-4.180058	"Log4J	-0.1497217
-4.284798	"Log4j"	-0.1427003
-4.284798	"LogFactor5	-0.1427003
-4.180058	"LogFactor5"	-0.1427003
-4.284798	"LogRecord:	-0.1427003
-4.284798	"LogRecords	-0.1427003
-4.284798	"Logger"	-0.1427003
-4.284798	"Looking	-0.1427003
-4.284798	"Looping	-0.1427003
-4.180058	"M"	-0.1427003
-4.284798	"MAIL"	-0.1427002
-4.284798	"MB"	-0.1427003
-4.284798	"MDC-TEST1"	-0.1427003
-4.284798	"MDC-TEST2"	-0.1427003
-4.284798	"MDC-TEST3"	-0.1427003
-4.284798	"MDC-TEST4"	-0.1427003
-4.284798	"MDC-TEST5"	-0.1427003
-4.284798	"MDC-TEST6"	-0.1427003
-4.284798	"MDC-TEST7"	-0.1427003
-4.284798	"MDC-TEST8"	-0.1427003
-4.284798	"MESSAGE]"	-0.1427003
-4.284798	"MMM	-0.1427003
-4.284798	"MMMM	-0.1427003
-4.284798	"MaIL"	-0.1427003
-4.284798	"Malformed	-0.1427003
-4.284798	"Malformed"	-0.1427003
-4.284798	"Maximum	-0.1427003
-4.121988	"Message	-0.1458069
-4.180058	"Message"	-0.1461968
-4.284798	"Messages	-0.1427003
-4.284798	"Method"	-0.1427003
-4.284798	"Mishandled	-0.1427003
-4.284798	"Missing	-0.1427002
-4.284798	"Mmm...forbidden	-0.1427003
-4.284798	"Mmmmmm	-0.1427003
-4.180058	"Mock"	-0.1427003
-4.284798	"Monospaced"	-0.1427003
-4.284798	"Month	-0.1427003
-4.284798	"More	-0.1427003
-4.284798	"Mr.	-0.1427003
-4.180058	"NDC	-0.1497217
-4.180058	"NDC"	-0.1473686
-4.284798	"NDC:	-0.1427003
-4.284798	"NDC]"	-0.1427003
-4.284798	"NEWS"	-0.1427002
-4.284798	"NON_PERSISTENT"	-0.1427003
-4.284798	"NTEventLogAppender"	-0.1427003
-4.284798	"NTEventLogAppender."	-0.1427003
-4.284798	"NULL	-0.1427003
-4.180058	"NULL"	-0.1427003
-4.284798	"NastyException"	-0.1427003
-4.284798	"Need	-0.1427003
-4.284798	"Negative	-0.1427003
-4.284798	"New	-0.1427003
-4.180058	"No	-0.1427002
-4.284798	"Nodes	-0.1427003
-4.284798	"Not	-0.1427003
-4.284798	"Nothing	-0.1427003
-4.284798	"Now	-0.1427003
-4.284798	"NuLL"	-0.1427003
-4.284798	"Num34"	-0.1427003
-4.284798	"Number"	-0.1427003
-4.284798	"NumberCruncherServer	-0.1427003
-4.180058	"OFF"	-0.1473686
-4.180058	"OK"	-0.1427003
-4.284798	"Object"	-0.1427003
-4.284798	"Ok"	-0.1427003
-4.284798	"One	-0.1427003
-4.180058	"Open	-0.1427002
-4.284798	"Open..."	-0.1427003
-4.284798	"Operation	-0.1427003
-4.284798	"Options	-0.1427003
-4.284798	"Other	-0.1427003
-4.284798	"PATTERN_RULE_REGISTRY"	-0.1427003
-4.284798	"PERSISTENT"	-0.1427003
-4.284798	"PRIMARY"	-0.1427003
-4.284798	"PRIORITY]"	-0.1427003
-4.284798	"Parsed	-0.1427003
-4.284798	"Parsing	-0.1427003
-4.180058	"Pause"	-0.1497217
-4.284798	"Please	-0.1427003
-4.284798	"Populating	-0.1427003
-4.284798	"Precision	-0.1427003
-4.284798	"Preferred	-0.1427003
-4.284798	"Prior	-0.1427003
-4.284798	"Priority"	-0.1427003
-4.284798	"Problem	-0.1427002
-4.180058	"Properties"	-0.1427003
-4.284798	"Property{"	-0.1427003
-4.284798	"ProviderURL.	-0.1427003
-4.284798	"Purported	-0.1427003
-4.180058	"RELATIVE"	-0.1427003
-4.284798	"ROLLING"	-0.1427003
-4.284798	"Reached	-0.1427003
-4.284798	"Reading	-0.1427003
-4.284798	"Received	-0.1427003
-4.284798	"Registering	-0.1427003
-4.284798	"Remote	-0.1427002
-4.284798	"Remove	-0.1427003
-4.284798	"Renaming	-0.1427002
-4.284798	"Rendering	-0.1427003
-4.284798	"RepositorySelector	-0.1427003
-4.284798	"Requesting	-0.1427003
-4.284798	"Reset	-0.1427003
-4.284798	"Reset"	-0.1427003
-4.284798	"Restore	-0.1427003
-4.284798	"Result	-0.1427003
-4.284798	"Resume"	-0.1427002
-4.284798	"Retreiving	-0.1427003
-4.284798	"Roll	-0.1427003
-4.180058	"RollOver"	-0.1427003
-4.284798	"Rollover	-0.1427003
-4.284798	"Root	-0.1427003
-4.284798	"SECOND	-0.1427003
-4.284798	"SEVERE"	-0.1427003
-4.284798	"SSS"	-0.1427003
-4.284798	"SYSLOG"	-0.1427002
-4.284798	"Save"	-0.1427003
-4.284798	"Search	-0.1427003
-4.284798	"Second	-0.1427002
-4.284798	"SecurityCredentials.	-0.1427003
-4.284798	"See	-0.1427003
-4.284798	"Select	-0.1427003
-4.284798	"Sequence	-0.1427003
-4.284798	"Serializable"	-0.1427003
-4.180058	"Set	-0.1497217
-4.284798	"Setting	-0.1427002
-4.284798	"Should	-0.1427003
-4.284798	"Show	-0.1427003
-4.284798	"SimpleSocketServer-"	-0.1427003
-4.284798	"SocketAppender	-0.1427003
-4.284798	"SocketHubAppender	-0.1427003
-4.284798	"SocketHubAppender-Monitor-"	-0.1427003
-4.284798	"SomeClass"	-0.1427003
-4.284798	"SomeClass.someMethod	-0.1427003
-4.180058	"Sort	-0.1473686
-4.284798	"Standard	-0.1427003
-4.284798	"Starting	-0.1427003
-4.284798	"StringToMatch"	-0.1427003
-4.284798	"Swapping	-0.1427003
-4.284798	"System	-0.1427003
-4.284798	"System.err"	-0.1427003
-4.284798	"System.out"	-0.1427003
-4.284798	"T1"	-0.1427003
-4.284798	"T2"	-0.1427003
-4.284798	"T3"	-0.1427003
-4.284798	"T4"	-0.1427003
-4.284798	"T5"	-0.1427003
-4.284798	"T6"	-0.1427003
-4.284798	"T7"	-0.1427003
-4.284798	"T8"	-0.1427003
-4.284798	"TH"	-0.1427003
-4.284798	"THREAD]"	-0.1427003
-4.284798	"TOTO"	-0.1427003
-4.284798	"TR"	-0.1427003
-4.284798	"TR#org.apache.log4j.xml.XLevel"	-0.1427003
-4.121988	"TRACE"	-0.1461968
-4.284798	"TRACE#org.apache.log4j.xml.XLevel"	-0.1427003
-4.284798	"TRC"	-0.1427003
-4.284798	"Tearing	-0.1427003
-4.284798	"TelnetAppender	-0.1427003
-4.284798	"TelnetAppender-"	-0.1427003
-4.284798	"Test	-0.1427003
-4.284798	"Test2	-0.1427003
-4.284798	"Test3	-0.1427003
-4.284798	"Test4	-0.1427003
-4.284798	"TestClass.Subclass"	-0.1427003
-4.284798	"TestClass.Subclass.Subclass"	-0.1427003
-4.284798	"Text	-0.1427002
-4.180058	"That's	-0.1497217
-4.121988	"The	-0.1427002
-4.121988	"This	-0.1427003
-4.284798	"Thread	-0.1427003
-4.180058	"Thread"	-0.1473686
-4.284798	"Threshold	-0.1427003
-4.284798	"Throwable"	-0.1427003
-4.180058	"Thrown"	-0.1427003
-4.180058	"Time"	-0.1497217
-4.180058	"TimeZone"	-0.1427003
-4.284798	"Title"	-0.1427003
-4.284798	"Too	-0.1427003
-4.284798	"Total	-0.1427003
-4.284798	"Trace"	-0.1427003
-4.284798	"Tree.textBackground"	-0.1427003
-4.284798	"Tried	-0.1427003
-4.284798	"Truly,	-0.1427003
-4.284798	"Trying	-0.1427003
-4.284798	"Type	-0.1427003
-4.284798	"UNDEF"	-0.1427003
-4.284798	"UNKNOWN"	-0.1427003
-4.284798	"UNKNOWN_HOST"	-0.1427003
-4.284798	"URL:"	-0.1427003
-4.284798	"US"	-0.1427003
-4.284798	"USER"	-0.1427002
-4.284798	"UTF-8"	-0.1427003
-4.284798	"UTObjectRenderer:	-0.1427003
-4.284798	"UUCP"	-0.1427002
-4.180058	"Unable	-0.1473686
-4.284798	"Unexpected	-0.1427003
-4.284798	"Unfortunate	-0.1427003
-4.284798	"Unknown	-0.1427003
-4.284798	"Unlocked	-0.1427003
-4.284798	"Unrecognized	-0.1427003
-4.284798	"Unsupported	-0.1427003
-4.284798	"Usage:	-0.1427003
-4.284798	"Use	-0.1427002
-4.180058	"Using	-0.1427003
-4.284798	"Uucp"	-0.1427003
-4.284798	"V1"	-0.1427003
-4.284798	"View"	-0.1427003
-4.180058	"WARN"	-0.1473686
-4.284798	"WARNING"	-0.1427003
-4.284798	"Waiting	-0.1427003
-4.284798	"Was	-0.1427002
-4.284798	"We	-0.1427003
-4.284798	"What's	-0.1427003
-4.180058	"World"	-0.1473686
-4.284798	"Write	-0.1427003
-4.284798	"Writing	-0.1427003
-4.284798	"Wrong	-0.1427003
-4.284798	"X"	-0.1427003
-4.284798	"XML	-0.1427003
-4.284798	"Y"	-0.1427003
-4.284798	"You	-0.1427003
-4.284798	"["	-0.1427003
-4.284798	"[%t]	-0.1427003
-4.284798	"[::1]"	-0.1427003
-4.284798	"[::1]:1514"	-0.1427003
-4.284798	"[<!ENTITY	-0.1427003
-4.284798	"[Ljava.lang.String;"	-0.1427003
-4.284798	"[configFile]\n"	-0.1427003
-4.284798	"[counter=%.10#]	-0.1427003
-4.284798	"[log4j.configDebug]	-0.1427003
-4.284798	"[slf5s."	-0.1427003
-4.284798	"[slf5s.start]"	-0.1427003
-4.180058	"\"	-0.1427003
-4.180058	"\""	-0.1473686
-4.284798	"\".	-0.1427003
-4.284798	"\"."	-0.1427003
-4.284798	"\"/>\r\n"	-0.1427003
-4.284798	"\">\r\n"	-0.1427003
-4.284798	"\">]>\n"	-0.1427003
-4.284798	"\\(.*:\\d{1,4}\\)"	-0.1427003
-4.284798	"\\(Native	-0.1427003
-4.284798	"\\(SocketServerTestCase.java:\\d{3}\\)	-0.1427003
-4.284798	"\\?	-0.1427003
-4.284798	"\\[main\\]	-0.1427003
-4.180058	"\\[main]\\	-0.1427002
-4.284798	"\\s*at	-0.1427002
-4.284798	"\\{"	-0.1427003
-4.284798	"\\{}\\{{}},	-0.1427002
-4.284798	"\n	-0.1427003
-4.180058	"\n"	-0.1473686
-4.284798	"\nCategoryPath:\n\t"	-0.1427003
-4.284798	"\nUsage:	-0.1427003
-4.180058	"\n\t"	-0.1497217
-4.284798	"\r"	-0.1427003
-4.284798	"\r\n"	-0.1427003
-4.121988	"\t"	-0.1473686
-4.284798	"\t<"	-0.1427003
-4.284798	"\t</loglevelcolors>\r\n"	-0.1427003
-4.284798	"\t</loglevels>\r\n"	-0.1427003
-4.284798	"\t</logtablecolumns>\r\n"	-0.1427003
-4.284798	"\t<loglevelcolors>\r\n"	-0.1427003
-4.284798	"\t<loglevels>\r\n"	-0.1427003
-4.284798	"\t<logtablecolumns>\r\n"	-0.1427003
-4.284798	"\t\t"	-0.1427003
-4.284798	"\t\t<"	-0.1427003
-4.180058	"\tat	-0.1427003
-4.284798	"\ttab	-0.1427003
-4.284798	"\u0130NFO"	-0.1427003
-4.284798	"\u0131nfo"	-0.1427003
-4.180058	"]	-0.1427002
-4.180058	"]"	-0.1454952
-4.284798	"],	-0.1427003
-4.284798	"].	-0.1427003
-4.284798	"]."	-0.1427003
-4.284798	"]="	-0.1427003
-4.284798	"]]&gt;"	-0.1427003
-4.284798	"]]>"	-0.1427003
-4.284798	"]]></log4j:NDC>\r\n"	-0.1427003
-4.284798	"]]></log4j:message>\r\n"	-0.1427003
-4.284798	"]]></log4j:throwable>\r\n"	-0.1427003
-4.284798	"^(DEBUG|INFO	-0.1427003
-4.284798	"^(TRACE|DEBUG|	-0.1427003
-4.284798	"^(TRACE|DEBUG|INFO	-0.1427003
-4.284798	"^\\[main]\\	-0.1427003
-4.284798	"^\\d{1,10}"	-0.1427003
-4.284798	"^\\d{1,2}	-0.1427003
-4.284798	"^\\d{2}:\\d{2}:\\d{2},\\d{3}"	-0.1427003
-4.284798	"^\\d{4}-\\d{2}-\\d{2}	-0.1427003
-4.284798	"_log4j_obj_tcpaccept_appender.local."	-0.1427003
-4.284798	"_log4j_obj_tcpconnect_appender.local."	-0.1427003
-4.284798	"_mdc"	-0.1427003
-4.284798	"a"	-0.1427003
-4.284798	"a.b"	-0.1427003
-4.284798	"a.b.c"	-0.1427003
-4.284798	"aBsolUte"	-0.1427003
-4.284798	"aaa"	-0.1427003
-4.284798	"accept"	-0.1427003
-4.284798	"accepting	-0.1427002
-4.284798	"activateOptions"	-0.1427003
-4.284798	"activateOptions():	-0.1427002
-4.284798	"add	-0.1427003
-4.284798	"addAppender	-0.1427003
-4.284798	"addAppender"	-0.1427003
-4.284798	"addAppender():	-0.1427002
-4.284798	"addAppender."	-0.1427003
-4.284798	"addAppenderEvent	-0.1427003
-4.284798	"addLoggerMBean"	-0.1427003
-4.284798	"addLoggerMBean():	-0.1427002
-4.284798	"additivity"	-0.1427003
-4.284798	"amd64"	-0.1427003
-4.284798	"apache.log4j.EnhancedPatternLayoutTestCase.common\\(EnhancedPatternLayoutTestCase.java:\\d{3}\\):	-0.1427003
-4.284798	"apache.log4j.PatternLayoutTestCase.common\\(PatternLayoutTestCase.java:\\d{3}\\):	-0.1427003
-4.284798	"appender	-0.1427003
-4.121988	"appender"	-0.1427003
-4.284798	"appender-ref"	-0.1427003
-4.284798	"appender="	-0.1427003
-4.284798	"application"	-0.1427003
-4.284798	"async-CloseTest"	-0.1427003
-4.284798	"async-test2"	-0.1427003
-4.284798	"async-test3"	-0.1427003
-4.121988	"at	-0.1427003
-4.284798	"attributeName"	-0.1427003
-4.284798	"attributeNames[]	-0.1427003
-4.284798	"auTh"	-0.1427003
-4.284798	"auth"	-0.1427003
-4.284798	"authprIv"	-0.1427003
-4.284798	"authpriv"	-0.1427003
-4.284798	"bar"	-0.1427003
-4.284798	"basic"	-0.1427003
-4.284798	"bbb"	-0.1427003
-4.284798	"blahAttribute"	-0.1427003
-4.284798	"blahValue"	-0.1427003
-4.284798	"blue"	-0.1427003
-4.284798	"body,	-0.1427003
-4.284798	"bogus"	-0.1427003
-4.284798	"c"	-0.1427003
-4.284798	"cat["	-0.1427003
-4.284798	"category"	-0.1427003
-4.284798	"categoryFactory"	-0.1427003
-4.284798	"caught	-0.1427003
-4.284798	"ccc"	-0.1427003
-4.284798	"chainsaw.port"	-0.1427003
-4.180058	"class	-0.1473686
-4.180058	"class"	-0.1427003
-4.284798	"client-test6"	-0.1427003
-4.284798	"client-test7"	-0.1427003
-4.284798	"closing	-0.1427003
-4.284798	"colorlevel"	-0.1427003
-4.284798	"column"	-0.1427003
-4.284798	"com.example.Tracer"	-0.1427003
-4.284798	"com.example.bar"	-0.1427003
-4.284798	"com.example.bar<>&\"'"	-0.1427003
-4.284798	"com.ibm.uvm.tools.DebugSupport"	-0.1427003
-4.284798	"com.sun.jdmk.comm.HtmlAdapterServer"	-0.1427003
-4.284798	"combinedTest"	-0.1427003
-4.284798	"configDebug"	-0.1427003
-4.284798	"configFile	-0.1427003
-4.284798	"configFile"	-0.1427003
-4.284798	"configuration"	-0.1427003
-4.284798	"console?\n"	-0.1427003
-4.284798	"control	-0.1427002
-4.284798	"could	-0.1427002
-4.284798	"create"	-0.1427003
-4.284798	"created	-0.1427003
-4.284798	"croN"	-0.1427003
-4.284798	"cron"	-0.1427003
-4.284798	"ct	-0.1427003
-4.284798	"custom	-0.1427003
-4.284798	"d"	-0.1427003
-4.284798	"dAte"	-0.1427003
-4.284798	"dAtefOrmat"	-0.1427003
-4.284798	"daemOn"	-0.1427003
-4.180058	"daemon"	-0.1427003
-4.180058	"date"	-0.1427003
-4.284798	"dateFormat	-0.1427003
-4.180058	"dd	-0.1497217
-4.284798	"ddd"	-0.1427003
-4.284798	"debug	-0.1427003
-4.284798	"debug"	-0.1427003
-4.284798	"deny"	-0.1427003
-4.284798	"dispatcher	-0.1427003
-4.284798	"does	-0.1427002
-4.284798	"dropped	-0.1427003
-4.284798	"due	-0.1427003
-4.284798	"dummy://log4j.dtd"	-0.1427003
-4.284798	"e"	-0.1427003
-4.284798	"eee"	-0.1427003
-4.284798	"either	-0.1427003
-4.284798	"empty	-0.1427003
-4.284798	"en"	-0.1427003
-4.284798	"errorHandler"	-0.1427003
-4.284798	"errorhandler"	-0.1427002
-4.284798	"exception	-0.1427003
-4.284798	"exit"	-0.1427003
-4.284798	"expanded"	-0.1427003
-4.284798	"expiration	-0.1427003
-3.959588	"false"	-0.1461968
-4.284798	"file	-0.1427003
-4.180058	"file"	-0.1461968
-4.284798	"file.separator"	-0.1427003
-4.284798	"filled	-0.1427003
-4.284798	"filter"	-0.1427003
-4.284798	"filterBase-test1.log"	-0.1427003
-4.284798	"filterBased-test1.%i"	-0.1427003
-4.284798	"finished	-0.1427003
-4.284798	"fo	-0.1427003
-4.284798	"fobar"	-0.1427003
-4.284798	"foo"	-0.1427003
-4.284798	"foo%m{yyyy.MM.dd"	-0.1427003
-4.284798	"foo.bar"	-0.1427003
-4.284798	"foobar	-0.1427003
-4.180058	"foobar"	-0.1497217
-4.284798	"foomsg	-0.1427003
-4.284798	"fr"	-0.1427003
-4.284798	"fragments	-0.1427003
-4.284798	"ftP"	-0.1427003
-4.284798	"ftp"	-0.1427003
-4.284798	"fullLocation"	-0.1427003
-4.284798	"generic"	-0.1427003
-4.284798	"getAttribute	-0.1427003
-4.284798	"getChainedPriority"	-0.1427003
-4.284798	"getClassName"	-0.1427003
-4.284798	"getContextClassLoader"	-0.1427003
-4.284798	"getFileName"	-0.1427003
-4.284798	"getInfo"	-0.1427003
-4.284798	"getLineNumber"	-0.1427003
-4.284798	"getLogger"	-0.1427003
-4.284798	"getMBeanInfo	-0.1427003
-4.284798	"getMethodName"	-0.1427003
-4.284798	"getPropertyKeySet"	-0.1427003
-4.284798	"getStackTrace"	-0.1427003
-4.284798	"getThreshold"	-0.1427003
-4.284798	"green"	-0.1427003
-4.180058	"greetings"	-0.1497217
-4.284798	"hello	-0.1427002
-4.284798	"hi"	-0.1427003
-4.284798	"hostID"	-0.1427003
-4.284798	"host_name	-0.1427003
-4.180058	"http://"	-0.1497217
-4.284798	"i"	-0.1427003
-4.284798	"i="	-0.1427003
-4.284798	"iSo8601"	-0.1427003
-4.284798	"ia64"	-0.1427003
-4.284798	"images/channelexplorer_new.gif"	-0.1427003
-4.180058	"in	-0.1427002
-4.284798	"index"	-0.1427003
-4.284798	"info"	-0.1427003
-4.284798	"inherited"	-0.1427003
-4.284798	"input	-0.1427002
-4.284798	"input/RFA1.properties"	-0.1427003
-4.284798	"input/fallback1.properties"	-0.1427003
-4.284798	"input/filter1.properties"	-0.1427003
-4.284798	"input/hierarchyThreshold1.properties"	-0.1427003
-4.284798	"input/hierarchyThreshold2.properties"	-0.1427003
-4.284798	"input/hierarchyThreshold3.properties"	-0.1427003
-4.284798	"input/hierarchyThreshold4.properties"	-0.1427003
-4.284798	"input/hierarchyThreshold5.properties"	-0.1427003
-4.284798	"input/hierarchyThreshold6.properties"	-0.1427003
-4.284798	"input/hierarchyThreshold7.properties"	-0.1427003
-4.284798	"input/hierarchyThreshold8.properties"	-0.1427003
-4.284798	"input/pattern/enhancedPatternLayout.mdc.1.properties"	-0.1427003
-4.284798	"input/pattern/enhancedPatternLayout1.properties"	-0.1427003
-4.284798	"input/pattern/enhancedPatternLayout10.properties"	-0.1427003
-4.284798	"input/pattern/enhancedPatternLayout11.properties"	-0.1427003
-4.284798	"input/pattern/enhancedPatternLayout12.properties"	-0.1427003
-4.284798	"input/pattern/enhancedPatternLayout13.properties"	-0.1427003
-4.284798	"input/pattern/enhancedPatternLayout14.properties"	-0.1427003
-4.284798	"input/pattern/enhancedPatternLayout15.properties"	-0.1427003
-4.284798	"input/pattern/enhancedPatternLayout16.properties"	-0.1427003
-4.284798	"input/pattern/enhancedPatternLayout2.properties"	-0.1427003
-4.284798	"input/pattern/enhancedPatternLayout3.properties"	-0.1427003
-4.284798	"input/pattern/enhancedPatternLayout4.properties"	-0.1427003
-4.284798	"input/pattern/enhancedPatternLayout5.properties"	-0.1427003
-4.284798	"input/pattern/enhancedPatternLayout6.properties"	-0.1427003
-4.284798	"input/pattern/enhancedPatternLayout7.properties"	-0.1427003
-4.284798	"input/pattern/enhancedPatternLayout8.properties"	-0.1427003
-4.284798	"input/pattern/enhancedPatternLayout9.properties"	-0.1427003
-4.284798	"input/patternLayout.mdc.1.properties"	-0.1427003
-4.284798	"input/patternLayout1.properties"	-0.1427003
-4.284798	"input/patternLayout10.properties"	-0.1427003
-4.284798	"input/patternLayout11.properties"	-0.1427003
-4.284798	"input/patternLayout12.properties"	-0.1427003
-4.284798	"input/patternLayout13.properties"	-0.1427003
-4.284798	"input/patternLayout14.properties"	-0.1427003
-4.284798	"input/patternLayout2.properties"	-0.1427003
-4.284798	"input/patternLayout3.properties"	-0.1427003
-4.284798	"input/patternLayout4.properties"	-0.1427003
-4.284798	"input/patternLayout5.properties"	-0.1427003
-4.284798	"input/patternLayout6.properties"	-0.1427003
-4.284798	"input/patternLayout7.properties"	-0.1427003
-4.284798	"input/patternLayout8.properties"	-0.1427003
-4.284798	"input/patternLayout9.properties"	-0.1427003
-4.284798	"input/xml/DOMTest4.xml"	-0.1427003
-4.284798	"input/xml/DOMTestCase1.xml"	-0.1427003
-4.284798	"input/xml/SocketAppenderTestConfig.xml"	-0.1427003
-4.284798	"input/xml/categoryfactory1.xml"	-0.1427003
-4.284798	"input/xml/categoryfactory2.xml"	-0.1427003
-4.284798	"input/xml/customLevel1.xml"	-0.1427003
-4.284798	"input/xml/customLevel2.xml"	-0.1427003
-4.284798	"input/xml/customLevel3.xml"	-0.1427003
-4.284798	"input/xml/customLevel4.xml"	-0.1427003
-4.284798	"input/xml/customLogger"	-0.1427003
-4.284798	"input/xml/defaultInit.xml"	-0.1427003
-4.284798	"input/xml/fallback1.xml"	-0.1427003
-4.284798	"input/xml/loggerfactory1.xml"	-0.1427003
-4.284798	"input/xml/smtpAppender1.xml"	-0.1427003
-4.284798	"input/xml/testReset.xml"	-0.1427003
-4.284798	"input/xml/throwableRenderer1.xml"	-0.1427003
-4.284798	"integer"	-0.1427003
-4.284798	"j="	-0.1427003
-4.284798	"jar:"	-0.1427003
-4.284798	"java.lang.Comparable"	-0.1427003
-4.284798	"java.lang.Exception:	-0.1427003
-4.284798	"java.lang.StackTraceElement"	-0.1427003
-4.180058	"java.lang.String"	-0.1427003
-4.284798	"java.lang.ThreadGroup[name="	-0.1427003
-4.284798	"java.vendor"	-0.1427003
-4.284798	"java.version"	-0.1427003
-4.284798	"javax.jmdns.JmDNS"	-0.1427003
-4.284798	"javax.jmdns.ServiceInfo"	-0.1427003
-4.284798	"javax.management.ObjectName"	-0.1427003
-4.284798	"javax.xml.parsers.DocumentBuilderFactory"	-0.1427003
-4.284798	"jdbc:odbc:myDB"	-0.1427003
-4.284798	"junit.framework.TestSuite"	-0.1427003
-4.284798	"junit.internal"	-0.1427003
-4.284798	"kErn"	-0.1427003
-4.284798	"kern	-0.1427003
-4.180058	"kern"	-0.1427003
-4.180058	"key1"	-0.1473686
-4.180058	"key2"	-0.1473686
-4.284798	"key3"	-0.1427003
-4.284798	"key4"	-0.1427003
-4.284798	"key5"	-0.1427003
-4.284798	"key6"	-0.1427003
-4.284798	"key7"	-0.1427003
-4.284798	"key8"	-0.1427003
-4.284798	"l"	-0.1427003
-4.284798	"lOcal0"	-0.1427003
-4.284798	"lPr"	-0.1427003
-4.284798	"lastOnly"	-0.1427003
-4.180058	"layout	-0.1497217
-4.180058	"layout"	-0.1427003
-4.284798	"level	-0.1427003
-3.959588	"level"	-0.1483083
-4.284798	"lf5"	-0.1427003
-4.284798	"lf5_configuration.xml"	-0.1427003
-4.180058	"line"	-0.1473686
-4.284798	"line.separator"	-0.1427003
-4.284798	"lineSep"	-0.1427003
-4.284798	"literal"	-0.1427003
-4.284798	"loCAL7"	-0.1427003
-4.284798	"loCal2"	-0.1427003
-4.284798	"load	-0.1427002
-4.284798	"loading	-0.1427002
-4.284798	"locAl3"	-0.1427003
-4.284798	"locaL4"	-0.1427003
-4.284798	"local0"	-0.1427003
-4.284798	"local1"	-0.1427003
-4.284798	"local2"	-0.1427003
-4.284798	"local3"	-0.1427003
-4.284798	"local4	-0.1427003
-4.284798	"local4"	-0.1427003
-4.180058	"local5"	-0.1427003
-4.284798	"local6"	-0.1427003
-4.284798	"local7"	-0.1427003
-4.284798	"localhost"	-0.1427003
-4.284798	"localhost:"	-0.1427003
-4.284798	"localhost:1514"	-0.1427003
-4.284798	"locationInfo"	-0.1427003
-4.284798	"log4j	-0.1427003
-4.284798	"log4j"	-0.1427003
-4.180058	"log4j.additivity."	-0.1427003
-4.180058	"log4j.appender."	-0.1427003
-4.284798	"log4j.appender.A1"	-0.1427003
-4.284798	"log4j.appender.A1.layout"	-0.1427003
-4.284798	"log4j.category."	-0.1427003
-4.180058	"log4j.configDebug"	-0.1427003
-4.180058	"log4j.configuration"	-0.1427003
-4.180058	"log4j.configuratorClass"	-0.1427003
-4.180058	"log4j.debug"	-0.1427003
-4.180058	"log4j.defaultInitOverride"	-0.1427003
-4.284798	"log4j.dtd"	-0.1427003
-4.284798	"log4j.factory"	-0.1427003
-4.284798	"log4j.ignoreTCL"	-0.1427003
-4.180058	"log4j.logger."	-0.1427003
-4.284798	"log4j.loggerFactory"	-0.1427003
-4.180058	"log4j.properties"	-0.1427003
-4.284798	"log4j.renderer."	-0.1427003
-4.180058	"log4j.reset"	-0.1427003
-4.284798	"log4j.rootCategory"	-0.1427003
-4.121988	"log4j.rootLogger"	-0.1427003
-4.284798	"log4j.rootLogger=\\uXX41"	-0.1427003
-4.284798	"log4j.rootLogger=debug"	-0.1427003
-4.284798	"log4j.threshold"	-0.1427003
-4.180058	"log4j.throwableRenderer"	-0.1427003
-4.284798	"log4j.throwableRenderer.showVersion"	-0.1427003
-4.180058	"log4j.xml"	-0.1427003
-4.284798	"log4j:	-0.1427003
-4.284798	"log4j:"	-0.1427003
-4.284798	"log4j:ERROR	-0.1427003
-4.180058	"log4j:NDC"	-0.1427003
-4.284798	"log4j:WARN	-0.1427003
-4.284798	"log4j:appender="	-0.1427003
-4.284798	"log4j:configuration"	-0.1427003
-4.284798	"log4j:data"	-0.1427003
-4.180058	"log4j:event"	-0.1427003
-4.284798	"log4j:hiearchy=default"	-0.1427003
-4.284798	"log4j:locationInfo"	-0.1427003
-4.180058	"log4j:message"	-0.1427003
-4.284798	"log4j:properties"	-0.1427003
-4.180058	"log4j:throwable"	-0.1427003
-4.121988	"logger"	-0.1461968
-4.284798	"logger-ref"	-0.1427003
-4.284798	"logger="	-0.1427003
-4.284798	"loggerFactory"	-0.1427003
-4.284798	"lpr"	-0.1427003
-4.284798	"m"	-0.1427003
-4.284798	"m0"	-0.1427003
-4.284798	"m1"	-0.1427003
-4.284798	"m2"	-0.1427003
-4.284798	"m3"	-0.1427003
-4.284798	"m4"	-0.1427003
-4.284798	"m5"	-0.1427003
-4.284798	"mail"	-0.1427003
-4.284798	"mail."	-0.1427003
-4.284798	"mail.smtp"	-0.1427003
-4.284798	"mail.transport.protocol"	-0.1427003
-4.284798	"main"	-0.1427003
-4.284798	"maxBackupIndex="	-0.1427003
-4.284798	"mdcPattern"	-0.1427003
-4.284798	"mdckey"	-0.1427003
-4.284798	"mdcvalue"	-0.1427003
-4.284798	"me"	-0.1427003
-4.180058	"message"	-0.1427003
-4.180058	"method"	-0.1473686
-4.284798	"min="	-0.1427003
-4.284798	"monitor.exit"	-0.1427003
-4.284798	"mru_file_manager"	-0.1427003
-4.180058	"msg	-0.1427003
-4.284798	"must	-0.1427003
-4.284798	"mypassword"	-0.1427003
-4.284798	"n"	-0.1427003
-4.284798	"n343"	-0.1427003
-4.284798	"name	-0.1427003
-4.121988	"name"	-0.1427003
-4.284798	"ndc	-0.1427003
-4.180058	"ndc"	-0.1427003
-4.284798	"newInstance"	-0.1427003
-4.284798	"newS"	-0.1427003
-4.284798	"news"	-0.1427003
-4.284798	"none"	-0.1427002
-4.284798	"noneTest"	-0.1427003
-3.959588	"null"	-0.1461968
-4.284798	"null.null	-0.1427003
-4.284798	"num34"	-0.1427003
-4.284798	"o.e.f.bar"	-0.1427003
-4.284798	"or	-0.1427002
-4.284798	"org.apache.catalina.loader.WebappClassLoader.stop"	-0.1427003
-4.284798	"org.apache.log4j.AsyncAppender.DONT_REPORT_LOCATION"	-0.1427003
-4.284798	"org.apache.log4j.ConsoleAppender"	-0.1427003
-4.284798	"org.apache.log4j.EnhancedPatternLayoutTestCase.common\\(EnhancedPatternLayoutTestCase.java:\\d{3}\\):	-0.1427003
-4.284798	"org.apache.log4j.LayoutTest"	-0.1427003
-4.284798	"org.apache.log4j.Logger"	-0.1427003
-4.284798	"org.apache.log4j.PatternLayoutTestCase.common\\(PatternLayoutTestCase.java:\\d{3}\\):	-0.1427003
-4.284798	"org.apache.log4j.PropertyConfiguratorTest"	-0.1427003
-4.284798	"org.apache.log4j.PropertyConfiguratorTest$MockThrowableRenderer"	-0.1427003
-4.284798	"org.apache.log4j.TTCCLayout"	-0.1427003
-4.284798	"org.apache.log4j.TestLogMFPatterns"	-0.1427003
-4.284798	"org.apache.log4j.TestLogSFPatterns"	-0.1427003
-4.284798	"org.apache.log4j.formatter.TestLogMF"	-0.1427003
-4.284798	"org.apache.log4j.formatter.TestLogSF"	-0.1427003
-4.284798	"org.apache.log4j.formatter.TestLogXF"	-0.1427003
-4.284798	"org.apache.log4j.helpers.ISO8601DateFormat"	-0.1427003
-4.284798	"org.apache.log4j.net.SocketAppenderTestDummy"	-0.1427003
-4.284798	"org.apache.log4j.net.SocketServerTestCase	-0.1427003
-4.284798	"org.apache.log4j.nt.NTEventLogAppenderTest"	-0.1427003
-4.284798	"org.apache.log4j.xml.DOMConfigurator"	-0.1427003
-4.284798	"org.apache.log4j.xml.DOMTestCase.testCategoryFactory1.1"	-0.1427003
-4.284798	"org.apache.log4j.xml.DOMTestCase.testCategoryFactory1.2"	-0.1427003
-4.284798	"org.apache.log4j.xml.DOMTestCase.testCategoryFactory2.1"	-0.1427003
-4.284798	"org.apache.log4j.xml.DOMTestCase.testCategoryFactory2.2"	-0.1427003
-4.284798	"org.apache.log4j.xml.DOMTestCase.testLoggerFactory1.1"	-0.1427003
-4.284798	"org.apache.log4j.xml.DOMTestCase.testLoggerFactory1.2"	-0.1427003
-4.284798	"org.apache.log4j.xml.HTMLLayoutTest"	-0.1427003
-4.284798	"org.apache.log4j.xml.PatternLayoutTest"	-0.1427003
-4.284798	"org.apache.log4j.xml.XMLLayoutTest"	-0.1427003
-4.284798	"org.apache.maven"	-0.1427003
-4.284798	"org.example.foo"	-0.1427003
-4.284798	"org.example.foo."	-0.1427003
-4.284798	"org.example.foo.bar"	-0.1427003
-4.284798	"org.foobar"	-0.1427003
-4.284798	"org/apache/log4j/lf5/viewer/"	-0.1427003
-4.284798	"os.arch"	-0.1427003
-4.284798	"output"	-0.1427003
-4.284798	"output/ERFA-test2.log"	-0.1427003
-4.284798	"output/ERFA-test2.log.1"	-0.1427003
-4.284798	"output/ERFA-test2.log.2"	-0.1427003
-4.284798	"output/ERFA-test2.log.3"	-0.1427003
-4.284798	"output/LevelMatchFilter_accept"	-0.1427003
-4.284798	"output/LevelMatchFilter_accept_filtered"	-0.1427003
-4.284798	"output/LevelMatchFilter_deny"	-0.1427003
-4.284798	"output/LevelMatchFilter_deny_filtered"	-0.1427003
-4.284798	"output/PatternParser"	-0.1427003
-4.284798	"output/RFA-dot1.log"	-0.1427003
-4.284798	"output/RFA-dot1.log.1"	-0.1427003
-4.284798	"output/RFA-dot1.log.2"	-0.1427003
-4.284798	"output/RFA-dot1.log.3"	-0.1427003
-4.284798	"output/RFA-dot1.log.4"	-0.1427003
-4.284798	"output/RFA-dot1.log.5"	-0.1427003
-4.284798	"output/RFA-dot1.log.7"	-0.1427003
-4.284798	"output/RFA-dot3.log"	-0.1427003
-4.284798	"output/RFA-dot3.log.1"	-0.1427003
-4.284798	"output/RFA-dot3.log.2"	-0.1427003
-4.284798	"output/RFA-dot3.log.3"	-0.1427003
-4.284798	"output/RFA-dot3.log.4"	-0.1427003
-4.284798	"output/RFA-dot3.log.5"	-0.1427003
-4.284798	"output/RFA-dot3.log.8"	-0.1427003
-4.284798	"output/RFA-test1.log"	-0.1427003
-4.284798	"output/RFA-test1.log.1"	-0.1427003
-4.284798	"output/RFA-test2.log"	-0.1427003
-4.284798	"output/RFA-test2.log.1"	-0.1427003
-4.284798	"output/RFA-test2.log.2"	-0.1427003
-4.284798	"output/RFA-test2.log.3"	-0.1427003
-4.284798	"output/RFA-test2.log.4"	-0.1427003
-4.284798	"output/badescape.properties"	-0.1427003
-4.284798	"output/drfa_blockedRollover.combined"	-0.1427003
-4.284798	"output/drfa_blockedRollover.log"	-0.1427003
-4.284798	"output/drfa_halfDay.log"	-0.1427003
-4.284798	"output/drfa_minuteRollover.log"	-0.1427003
-4.284798	"output/drfa_nopattern.log"	-0.1427003
-4.284798	"output/drfa_topOfDay.log"	-0.1427003
-4.284798	"output/drfa_topOfHour.log"	-0.1427003
-4.284798	"output/drfa_topOfMinute.log"	-0.1427003
-4.284798	"output/drfa_topOfMonth.log"	-0.1427003
-4.284798	"output/drfa_topOfWeek.log"	-0.1427003
-4.284798	"output/drfa_topOfYear.log"	-0.1427003
-4.284798	"output/filtered"	-0.1427003
-4.284798	"output/filtered.A1"	-0.1427003
-4.284798	"output/filtered.A2"	-0.1427003
-4.284798	"output/newdir"	-0.1427003
-4.284798	"output/newdir/temp.log"	-0.1427003
-4.284798	"output/patternLayout.mdc.2"	-0.1427003
-4.284798	"output/patternLayout.throwable"	-0.1427003
-4.284798	"output/patternLayout16.log"	-0.1427003
-4.284798	"output/properties.jar"	-0.1427003
-4.284798	"output/rfa_2param.log"	-0.1427003
-4.284798	"output/rfa_3param.log"	-0.1427003
-4.180058	"output/simple"	-0.1497217
-4.180058	"output/subst-test.A1"	-0.1427003
-4.180058	"output/temp"	-0.1427003
-4.180058	"output/temp.A1"	-0.1427003
-4.284798	"output/temp.A2"	-0.1427003
-4.180058	"output/ttcc"	-0.1497217
-4.284798	"output/unclosed.properties"	-0.1427003
-4.284798	"output/urlbadescape.properties"	-0.1427003
-4.284798	"output/xml.jar"	-0.1427003
-4.284798	"p"	-0.1427003
-4.284798	"p1"	-0.1427003
-4.284798	"p2"	-0.1427003
-4.180058	"param"	-0.1427003
-4.284798	"param1"	-0.1427003
-4.284798	"pass	-0.1427003
-4.284798	"path"	-0.1427003
-4.284798	"pattern"	-0.1427003
-4.284798	"plain	-0.1427003
-4.284798	"postDeregister	-0.1427003
-4.284798	"postRegister	-0.1427003
-4.284798	"preDeregister	-0.1427003
-4.284798	"preRegister	-0.1427003
-4.284798	"print(Object)"	-0.1427003
-4.284798	"print(Object)print(char[])print(String)println(Object)"	-0.1427003
-4.284798	"print(String)"	-0.1427003
-4.284798	"print(char[])"	-0.1427002
-4.284798	"println(Object)"	-0.1427003
-4.284798	"println(String)"	-0.1427003
-4.284798	"println(char[])"	-0.1427002
-4.180058	"priority"	-0.1427003
-4.284798	"properties"	-0.1427003
-4.284798	"propertiesTest"	-0.1427003
-4.284798	"property"	-0.1427003
-4.284798	"property."	-0.1427003
-4.284798	"quoted-printable"	-0.1427003
-4.284798	"r"	-0.1427003
-4.284798	"rElatIve"	-0.1427003
-4.284798	"reader	-0.1427003
-4.284798	"red"	-0.1427003
-4.284798	"ref"	-0.1427003
-4.284798	"registerService"	-0.1427003
-4.284798	"registered	-0.1427003
-4.284798	"relative"	-0.1427003
-4.284798	"removeAppenderCalled:	-0.1427003
-4.284798	"renderedClass"	-0.1427003
-4.284798	"renderer"	-0.1427003
-4.284798	"renderingClass"	-0.1427003
-4.284798	"reset	-0.1427003
-4.284798	"reset"	-0.1427003
-4.284798	"rfc822"	-0.1427003
-4.284798	"rollOver()	-0.1427003
-4.284798	"rolling	-0.1427003
-4.121988	"root"	-0.1473686
-4.284798	"root-ref"	-0.1427003
-4.284798	"s/"	-0.1427003
-4.284798	"s/,	-0.1427003
-4.284798	"s/:\\d{1,4}\\)/:XXX)/"	-0.1427003
-4.284798	"s/Compiled	-0.1427003
-4.284798	"s/\\(Method.java:.*\\)/(Native	-0.1427003
-4.284798	"s/line=\"?\"/line=\"X\"/"	-0.1427003
-4.284798	"s/line=\"\\d{1,3}\"/line=\"X\"/"	-0.1427003
-4.284798	"s/timestamp=\"\\d{10,13}\"/timestamp=\"XXX\"/"	-0.1427003
-4.284798	"searchtext"	-0.1427003
-4.284798	"selected"	-0.1427003
-4.284798	"sending	-0.1427003
-4.284798	"sequenceNumber"	-0.1427003
-4.284798	"server	-0.1427003
-4.284798	"setFile	-0.1427003
-4.284798	"setFile("	-0.1427003
-4.284798	"setLayout"	-0.1427003
-4.284798	"setLayout():	-0.1427002
-4.284798	"short"	-0.1427002
-4.284798	"shortSocketServer"	-0.1427003
-4.284798	"shutting	-0.1427003
-4.284798	"simple"	-0.1427003
-4.284798	"size"	-0.1427003
-4.180058	"sn"	-0.1427003
-4.284798	"some"	-0.1427003
-4.284798	"some.cat"	-0.1427003
-4.284798	"some5"	-0.1427003
-4.284798	"some6"	-0.1427003
-4.284798	"some7"	-0.1427003
-4.284798	"some8"	-0.1427003
-4.284798	"someMethod"	-0.1427003
-4.284798	"someParam"	-0.1427003
-4.284798	"someValue"	-0.1427003
-4.284798	"ss,SS0"	-0.1427003
-4.284798	"start"	-0.1427003
-4.284798	"starting	-0.1427003
-4.284798	"stopping	-0.1427003
-4.284798	"sun.jdbc.odbc.JdbcOdbcDriver"	-0.1427003
-4.284798	"syslOg"	-0.1427003
-4.284798	"syslog"	-0.1427003
-4.180058	"syslog.example.org"	-0.1497217
-4.284798	"syslogHost"	-0.1427003
-4.284798	"t"	-0.1427003
-4.284798	"tImezOne"	-0.1427003
-4.284798	"ta"	-0.1427003
-4.284798	"tab	-0.1427003
-4.284798	"test"	-0.1427003
-4.284798	"test0"	-0.1427003
-4.284798	"test1"	-0.1427003
-4.284798	"test10"	-0.1427003
-4.284798	"test2"	-0.1427003
-4.284798	"test3"	-0.1427003
-4.284798	"test4"	-0.1427003
-4.284798	"test5"	-0.1427003
-4.284798	"test6"	-0.1427003
-4.284798	"test7"	-0.1427003
-4.284798	"test8"	-0.1427003
-4.284798	"test9"	-0.1427003
-4.284798	"testAppender1"	-0.1427003
-4.284798	"testAppender2.1"	-0.1427003
-4.284798	"testAppender2.2"	-0.1427003
-4.284798	"testCDATA"	-0.1427003
-4.284798	"testComputeCheckPeriod"	-0.1427003
-4.284798	"testFallbackErrorHandlerWhenStarting"	-0.1427003
-4.284798	"testFourParamConstructor"	-0.1427003
-4.284798	"testMDC"	-0.1427003
-4.284798	"testMDCEscaped"	-0.1427003
-4.284798	"testNull"	-0.1427003
-4.284798	"testResize"	-0.1427003
-4.284798	"testResize1"	-0.1427003
-4.284798	"testResize2"	-0.1427003
-4.284798	"testResize3"	-0.1427003
-4.121988	"text/html"	-0.1427003
-4.121988	"text/plain"	-0.1473686
-4.284798	"th	-0.1427003
-4.284798	"th"	-0.1427003
-4.180058	"thread"	-0.1473686
-4.284798	"threshold"	-0.1427003
-4.180058	"throwable"	-0.1427003
-4.284798	"throwableRenderer"	-0.1427003
-4.284798	"time"	-0.1427003
-4.284798	"timestamp"	-0.1427003
-4.180058	"toLevel"	-0.1427003
-4.284798	"toLevelTest1"	-0.1427003
-4.284798	"toLevelTest2"	-0.1427003
-4.284798	"toLevelTest3"	-0.1427003
-4.284798	"toLevelTest4"	-0.1427003
-4.284798	"toLevelTest5"	-0.1427003
-4.284798	"tr"	-0.1427003
-4.284798	"trigger"	-0.1427003
-4.284798	"triggeringPolicy"	-0.1427002
-4.180058	"true"	-0.1473686
-4.284798	"ttcc"	-0.1427003
-4.284798	"ui.TestRunner"	-0.1427003
-4.284798	"unexpected	-0.1427003
-4.284798	"unregisterService"	-0.1427003
-4.284798	"unregistered	-0.1427003
-4.284798	"url	-0.1427003
-4.284798	"usEr"	-0.1427003
-4.180058	"user"	-0.1427003
-4.284798	"user.home"	-0.1427003
-4.284798	"user:"	-0.1427003
-4.284798	"using	-0.1427003
-4.284798	"uucp	-0.1427003
-4.284798	"uucp"	-0.1427003
-4.284798	"va11"	-0.1427003
-4.284798	"va12"	-0.1427003
-4.284798	"val1"	-0.1427003
-4.284798	"val2"	-0.1427003
-4.180058	"value"	-0.1427003
-4.284798	"value1"	-0.1427003
-4.284798	"value2"	-0.1427003
-4.284798	"varSubstTest1"	-0.1427003
-4.284798	"varSubstTest2"	-0.1427003
-4.284798	"varSubstTest3"	-0.1427003
-4.284798	"varSubstTest4"	-0.1427003
-4.284798	"varSubstTest5"	-0.1427003
-4.284798	"void"	-0.1427003
-4.284798	"where	-0.1427003
-4.284798	"witness/LevelMatchFilter_accept"	-0.1427003
-4.284798	"witness/LevelMatchFilter_deny"	-0.1427003
-4.284798	"witness/PatternParser"	-0.1427003
-4.284798	"witness/customLevel.1"	-0.1427003
-4.284798	"witness/customLevel.2"	-0.1427003
-4.284798	"witness/customLevel.3"	-0.1427003
-4.284798	"witness/customLevel.4"	-0.1427003
-4.284798	"witness/customLogger."	-0.1427003
-4.284798	"witness/dom.A1.1"	-0.1427003
-4.284798	"witness/dom.A1.4"	-0.1427003
-4.284798	"witness/dom.A2.1"	-0.1427003
-4.284798	"witness/dom.A2.4"	-0.1427003
-4.284798	"witness/drfa_blockedRollover.log"	-0.1427003
-4.284798	"witness/fallback1"	-0.1427003
-4.284798	"witness/hierarchyThreshold.1"	-0.1427003
-4.284798	"witness/hierarchyThreshold.2"	-0.1427003
-4.284798	"witness/hierarchyThreshold.3"	-0.1427003
-4.284798	"witness/hierarchyThreshold.4"	-0.1427003
-4.284798	"witness/hierarchyThreshold.5"	-0.1427003
-4.284798	"witness/hierarchyThreshold.6"	-0.1427003
-4.284798	"witness/hierarchyThreshold.7"	-0.1427003
-4.284798	"witness/hierarchyThreshold.8"	-0.1427003
-4.284798	"witness/pattern/enhancedPatternLayout.1"	-0.1427003
-4.284798	"witness/pattern/enhancedPatternLayout.10"	-0.1427003
-4.284798	"witness/pattern/enhancedPatternLayout.11"	-0.1427003
-4.284798	"witness/pattern/enhancedPatternLayout.12"	-0.1427003
-4.284798	"witness/pattern/enhancedPatternLayout.13"	-0.1427003
-4.284798	"witness/pattern/enhancedPatternLayout.14"	-0.1427003
-4.284798	"witness/pattern/enhancedPatternLayout.15"	-0.1427003
-4.284798	"witness/pattern/enhancedPatternLayout.2"	-0.1427003
-4.284798	"witness/pattern/enhancedPatternLayout.3"	-0.1427003
-4.284798	"witness/pattern/enhancedPatternLayout.4"	-0.1427003
-4.284798	"witness/pattern/enhancedPatternLayout.5"	-0.1427003
-4.284798	"witness/pattern/enhancedPatternLayout.6"	-0.1427003
-4.284798	"witness/pattern/enhancedPatternLayout.7"	-0.1427003
-4.284798	"witness/pattern/enhancedPatternLayout.8"	-0.1427003
-4.284798	"witness/pattern/enhancedPatternLayout.9"	-0.1427003
-4.284798	"witness/pattern/enhancedPatternLayout.mdc.1"	-0.1427003
-4.284798	"witness/pattern/enhancedPatternLayout.mdc.2"	-0.1427003
-4.284798	"witness/pattern/enhancedPatternLayout.throwable"	-0.1427003
-4.284798	"witness/patternLayout.1"	-0.1427003
-4.284798	"witness/patternLayout.10"	-0.1427003
-4.284798	"witness/patternLayout.11"	-0.1427003
-4.284798	"witness/patternLayout.12"	-0.1427003
-4.284798	"witness/patternLayout.13"	-0.1427003
-4.284798	"witness/patternLayout.14"	-0.1427003
-4.284798	"witness/patternLayout.2"	-0.1427003
-4.284798	"witness/patternLayout.3"	-0.1427003
-4.284798	"witness/patternLayout.4"	-0.1427003
-4.284798	"witness/patternLayout.5"	-0.1427003
-4.284798	"witness/patternLayout.6"	-0.1427003
-4.284798	"witness/patternLayout.7"	-0.1427003
-4.284798	"witness/patternLayout.8"	-0.1427003
-4.284798	"witness/patternLayout.9"	-0.1427003
-4.284798	"witness/patternLayout.mdc.1"	-0.1427003
-4.284798	"witness/patternLayout.mdc.clear"	-0.1427003
-4.284798	"witness/serialization/exception.bin"	-0.1427003
-4.284798	"witness/serialization/info.bin"	-0.1427003
-4.284798	"witness/serialization/location.bin"	-0.1427003
-4.284798	"witness/serialization/mdc.bin"	-0.1427003
-4.284798	"witness/serialization/ndc.bin"	-0.1427003
-4.284798	"witness/serialization/simple.bin"	-0.1427003
-4.284798	"witness/simple"	-0.1427003
-4.284798	"witness/socketServer.1"	-0.1427003
-4.284798	"witness/socketServer.2"	-0.1427003
-4.284798	"witness/socketServer.3"	-0.1427003
-4.284798	"witness/socketServer.4"	-0.1427003
-4.284798	"witness/socketServer.5"	-0.1427003
-4.284798	"witness/socketServer.6"	-0.1427003
-4.284798	"witness/socketServer.7"	-0.1427003
-4.284798	"witness/socketServer.8"	-0.1427003
-4.284798	"witness/ttcc"	-0.1427003
-4.284798	"witness/xmlLayout.1"	-0.1427003
-4.284798	"witness/xmlLayout.2"	-0.1427003
-4.284798	"witness/xmlLayout.3"	-0.1427003
-4.284798	"witness/xmlLayout.mdc.1"	-0.1427003
-4.284798	"witness/xmlLayout.mdc.2"	-0.1427003
-4.284798	"witness/xmlLayout.null"	-0.1427003
-4.284798	"wonderful"	-0.1427003
-4.284798	"write(String,	-0.1427003
-4.284798	"write(char[])"	-0.1427002
-4.284798	"write(char[])ite(charite(Stri"	-0.1427003
-4.284798	"write(char[],	-0.1427003
-4.284798	"x"	-0.1427003
-4.284798	"x.y"	-0.1427003
-4.284798	"x.y.z"	-0.1427003
-4.284798	"x1"	-0.1427003
-4.284798	"x86"	-0.1427003
-4.284798	"xml"	-0.1427003
-4.284798	"xmlTest"	-0.1427003
-4.284798	"xx"	-0.1427003
-4.284798	"xyz	-0.1427003
-4.180058	"yyyy-MM-dd	-0.1450282
-4.180058	"yyyy-MM-dd"	-0.1427003
-4.284798	"yyyy-MM-dd.'log'"	-0.1427003
-4.284798	"yyyy-MM.'log'"	-0.1427003
-4.284798	"yyyy-MMMM-dd	-0.1427003
-4.284798	"z343"	-0.1427003
-3.959588	"{"	-0.1942398
-4.180058	"{0,	-0.1497217
-4.284798	"{0}"	-0.1427003
-4.180058	"{0}{0,	-0.1497217
-4.284798	"{1},	-0.1427003
-4.180058	"{1}{2}	-0.1473686
-4.284798	"{key1,va11}{key2,va12}"	-0.1427003
-4.284798	"{key1,value1}{key2,value2}"	-0.1427003
-4.284798	"{key2,va12}{key1,va11}"	-0.1427003
-4.284798	"{key2,value2}{key1,value1}"	-0.1427003
-4.180058	"{}"	-0.1427003
-4.284798	"{},	-0.1427003
-4.284798	"{}{Hello},	-0.1427002
-4.180058	"{}{}	-0.1473686
-4.121988	"}"	-0.1473686
-4.284798	#"	-0.1427003
-4.284798	#336699;	-0.1427003
-4.284798	#45890"	-0.1427003
-4.284798	#FFFFFF;	-0.1427003
-4.284798	${TOTO}	-0.1427003
-4.284798	${incomplete	-0.1427003
-4.180058	${key1}	-0.1427003
-4.284798	${key2}	-0.1427003
-4.284798	${unset}	-0.1427003
-3.672694	%	-0.1618063
-4.284798	%"	-0.1427003
-4.284798	%,	-0.1427003
-4.180058	%-5level	-0.1427003
-4.284798	%X%n"	-0.1427003
-4.284798	%X{key1}%n"	-0.1427003
-4.284798	%X{key1},%X{key2},%X{key3}%n"	-0.1427003
-4.284798	%X{key2}%n"	-0.1427003
-4.284798	%X{key3}%n"	-0.1427003
-4.121988	%c	-0.1461968
-4.284798	%d{HH:mm:ss}	-0.1427003
-4.284798	%logger	-0.1427003
-4.284798	%m"	-0.1427003
-4.180058	%m%n"	-0.1461968
-4.180058	%p	-0.1497217
-4.284798	%x	-0.1427003
-4.180058	&	-0.1427003
-3.159992	&&	-0.1738795
-3.672694	'	-0.2468872
-4.284798	'"	-0.1427003
-4.180058	'"'	-0.1473686
-4.180058	'#'	-0.1497217
-4.284798	'%'	-0.1427003
-4.121988	'&'	-0.1473686
-4.284798	'('	-0.1427003
-4.284798	')'	-0.1427003
-4.284798	'*'	-0.1427003
-4.284798	','	-0.1427003
-4.180058	'-'	-0.1427003
-3.749011	'.'	-0.3101526
-4.284798	'/'	-0.1427003
-3.84166	'0'	-0.2368717
-4.284798	'1'	-0.1427003
-4.180058	'9'	-0.1497217
-4.284798	':'	-0.1427003
-4.121988	'<'	-0.1473686
-4.180058	'='	-0.1427003
-3.959588	'>'	-0.2081406
-4.284798	'>]><body>"	-0.1427003
-4.284798	'>]><table>"	-0.1427003
-4.284798	'?'	-0.1427003
-4.180058	'A'	-0.1427003
-4.121988	'C'	-0.1427003
-4.284798	'F'	-0.1427002
-4.284798	'L'	-0.1427002
-4.284798	'M'	-0.1427002
-4.284798	'S'	-0.1427003
-4.284798	'X'	-0.1427002
-4.284798	'['	-0.1427003
-4.121988	'\"'	-0.1427003
-4.121988	'\''	-0.1473686
-4.180058	'\0'	-0.1427003
-3.959588	'\\'	-0.1461968
-4.180058	'\b'	-0.1427003
-4.284798	'\f'	-0.1427003
-4.180058	'\n'	-0.1427003
-4.284798	'\r'	-0.1427003
-4.284798	'\t'	-0.1427003
-4.121988	']'	-0.2323453
-4.284798	'a'	-0.1427003
-4.180058	'c'	-0.1427003
-4.284798	'd'	-0.1427002
-4.284798	'e'	-0.1427003
-4.180058	'f'	-0.1497217
-4.284798	'h'	-0.1427003
-4.180058	'l'	-0.1427003
-4.180058	'm'	-0.1427003
-4.121988	'n'	-0.1473686
-4.284798	'o'	-0.1427003
-4.180058	'p'	-0.1427003
-4.121988	'r'	-0.1473686
-4.284798	's'	-0.1427003
-4.180058	't'	-0.1427003
-4.284798	'u'	-0.1427003
-4.284798	'v'	-0.1427003
-4.180058	'x'	-0.1427003
-4.180058	'{'	-0.1473686
-3.959588	'}'	-0.1450281
-1.120043	(	-0.4292037
-3.607805	("	-0.658314
-4.284798	(%F:%L)	-0.1427003
-4.180058	(DEBUG|INFO	-0.1497217
-4.284798	(DEBUG|INFO|WARN|ERROR|FATAL)	-0.1427003
-4.284798	(FATAL|ERROR|WARN|INFO|DEBUG)"	-0.1427003
-4.180058	(TRACE|DEBUG|INFO	-0.1497217
-4.180058	(TRACE|DEBUG|INFO|WARN|ERROR|FATAL)	-0.1497217
-4.180058	(root|SocketServerTestCase)	-0.1497217
-4.284798	(root|test)	-0.1427003
-1.126363	)	-1.152601
-3.205259	*	-0.2422291
-4.284798	*-	-0.1427003
-3.84166	*=	-0.3050506
-4.284798	*configFile*	-0.1427003
-1.937563	+	-0.3236332
-2.82992	++	-0.660466
-3.551363	+=	-0.1433641
-1.418882	,	-0.4042857
-2.664704	-	-0.2575185
-3.749011	--	-0.2547287
-3.959588	-=	-0.1427003
-4.284798	->	-0.1427003
-1.450431	.	-0.3704975
-4.180058	."	-0.1497217
-4.121988	.*	-0.1973882
-4.284798	.*\\((Native	-0.1427003
-4.284798	.*\\(.*Compiled	-0.1427003
-4.284798	.*\\(.*\\)"	-0.1427003
-4.284798	.*\\(.*libgcj.*\\)"	-0.1427003
-4.284798	.*\\(Native	-0.1427003
-4.180058	...	-0.1427003
-4.284798	....	-0.1427003
-4.284798	.{2,6}\\.?	-0.1427003
-3.607805	/	-0.1468995
-4.284798	/"	-0.1427003
-4.180058	/=	-0.1427003
-3.283462	0	-0.3563928
-4.284798	0.5f	-0.1427003
-4.121988	00:00:00,000"	-0.2323453
-4.284798	00:00:00,120"	-0.1427003
-4.284798	0L	-0.1427003
-4.284798	0x7F	-0.1427003
-4.284798	0x7FFFFFFF	-0.1427003
-4.284798	0x80	-0.1427003
-3.283462	1	-0.3330682
-3.84166	1"	-0.2183493
-4.180058	1.0	-0.1427003
-4.284798	1.2//EN"	-0.1427003
-4.180058	1.4	-0.1427002
-3.551363	10	-0.282814
-3.959588	100	-0.3050506
-3.456631	1000	-0.3842318
-4.284798	1000.0	-0.1427003
-4.180058	10000	-0.1427003
-4.284798	1000000	-0.1427003
-4.284798	1000L	-0.1427003
-4.284798	1001	-0.1427003
-4.284798	1002	-0.1427003
-4.284798	1003	-0.1427003
-4.284798	1004	-0.1427003
-4.284798	1019	-0.1427003
-3.749011	1024	-0.1738887
-4.284798	1048576	-0.1427003
-3.959588	11	-0.1454952
-4.284798	11141L	-0.1427002
-4.284798	11142L	-0.1427002
-4.284798	113	-0.1427003
-3.959588	12	-0.2734211
-4.284798	120	-0.1427003
-4.284798	1200	-0.1427002
-4.284798	12345	-0.1427003
-4.284798	12601L	-0.1427002
-4.284798	12602L	-0.1427002
-4.284798	12603L	-0.1427002
-4.121988	128	-0.1473686
-4.284798	13	-0.1427003
-4.284798	130	-0.1427003
-4.284798	1325822038990805636L	-0.1427003
-4.284798	1352613734254235861L	-0.1427003
-4.284798	14	-0.1427003
-4.284798	1415	-0.1427003
-4.284798	1423	-0.1427003
-4.180058	15	-0.1473686
-4.284798	150	-0.1427003
-3.959588	16	-0.1473686
-4.121988	17	-0.1483083
-4.284798	1787725660780924147L	-0.1427003
-4.180058	18	-0.1497217
-4.284798	189	-0.1427003
-4.284798	18:00:00,000"	-0.1427003
-4.121988	19	-0.1473686
-4.284798	1970	-0.1427003
-4.284798	1L	-0.1427003
-4.284798	1ore"	-0.1427003
-4.284798	1{yyyy.MM.dd"	-0.1427003
-3.283462	2	-0.380774
-4.284798	2"	-0.1427003
-3.959588	20	-0.1466986
-4.121988	200	-0.1461968
-4.121988	2000	-0.1427003
-4.180058	20000	-0.1427003
-4.284798	2001	-0.1427003
-4.284798	2002	-0.1427003
-4.284798	2003	-0.1427003
-4.180058	2004	-0.1427003
-4.284798	2005	-0.1427003
-4.180058	2048	-0.1427003
-4.121988	21	-0.1473686
-4.180058	22	-0.1497217
-3.672694	23	-0.2101697
-4.180058	230	-0.1473686
-4.180058	237	-0.1497217
-4.180058	24	-0.1497217
-4.284798	245	-0.1427003
-4.180058	25	-0.1427003
-4.121988	256	-0.1473686
-4.284798	2626753561969426769L	-0.1427003
-4.284798	29\\."	-0.1427003
-4.284798	2L	-0.1427003
-4.284798	2\\d{3}	-0.1427003
-3.416034	3	-0.3202255
-4.284798	3"	-0.1427003
-4.284798	3.14	-0.1427003
-4.284798	3.14f	-0.1427003
-4.180058	30	-0.1427003
-4.284798	300	-0.1427003
-4.180058	30000	-0.1427003
-4.180058	31	-0.1427003
-3.959588	32	-0.2081406
-4.284798	3413887384316015901L	-0.1427003
-4.180058	3491141966387921974L	-0.1427003
-4.284798	35	-0.1427003
-4.284798	350	-0.1427003
-4.284798	352	-0.1427003
-4.284798	353	-0.1427003
-4.284798	354	-0.1427003
-4.284798	355	-0.1427003
-4.284798	356	-0.1427003
-4.284798	3560331770601814177L	-0.1427003
-4.284798	3593300685868700894L	-0.1427003
-4.284798	360	-0.1427003
-4.284798	37	-0.1427003
-4.284798	388856345976723342L	-0.1427003
-4.284798	3951639953706443213L	-0.1427003
-3.456631	4	-0.3127206
-4.284798	4"	-0.1427003
-4.284798	4.01	-0.1427003
-4.180058	40	-0.1497217
-4.284798	400	-0.1427003
-4.180058	40000	-0.1427003
-4.284798	42	-0.1427003
-4.284798	42"	-0.1427003
-4.284798	4275827753626456547L	-0.1427003
-4.284798	440	-0.1427003
-4.284798	4445	-0.1427003
-4.284798	4479121426311014469L	-0.1427003
-4.284798	4560	-0.1427003
-4.284798	4748765566864322735L	-0.1427003
-4.284798	4867085140195148458L	-0.1427003
-3.672694	5	-0.1693935
-4.180058	50	-0.1427003
-4.180058	500	-0.1427003
-4.180058	5000	-0.1427003
-4.180058	50000	-0.1427003
-4.284798	512	-0.1427003
-4.284798	514	-0.1427003
-4.284798	54353	-0.1427003
-4.284798	55	-0.1427003
-4.284798	550	-0.1427003
-4.284798	5500	-0.1427003
-4.284798	5547637772208514971L	-0.1427003
-4.121988	59	-0.1427003
-4.284798	5958994817693177319L	-0.1427003
-3.749011	6	-0.1706671
-4.284798	6."	-0.1427003
-4.180058	60	-0.1427003
-4.284798	600	-0.1427003
-4.284798	6000	-0.1427003
-4.121988	60000	-0.1473686
-4.284798	6046702673278595048L	-0.1427003
-4.284798	6094804684259929574L	-0.1427003
-4.284798	63000	-0.1427003
-4.284798	6529165785030431653L	-0.1427003
-4.284798	654	-0.1427003
-3.672694	7	-0.1483083
-4.284798	70	-0.1427003
-4.284798	7055751607085611984L	-0.1427003
-4.284798	7288304330257085144L	-0.1427003
-4.284798	759840745298755296L	-0.1427003
-4.284798	7L	-0.1427002
-3.551363	8	-0.186496
-4.284798	8"	-0.1427003
-4.284798	800	-0.1427003
-4.284798	8000	-0.1427003
-4.284798	8066257446951323576L	-0.1427003
-4.284798	86400000L	-0.1427003
-4.284798	868428216207166145L	-0.1427003
-4.284798	87	-0.1427003
-4.284798	88	-0.1427003
-3.84166	9	-0.1479557
-4.284798	90	-0.1427003
-4.284798	900	-0.1427003
-4.284798	905	-0.1427003
-4.284798	984	-0.1427003
-4.284798	987	-0.1427003
-2.389162	:	-0.474445
-4.284798	:"	-0.1427003
-1.290176	;	-0.5764391
-2.583472	<	-0.2571089
-4.284798	<!ENTITY	-0.1427003
-4.284798	<![CDATA[<hello>hi</hello>]]>."	-0.1427003
-4.121988	<"	-0.2323454
-4.284798	</s>
-3.182036	<=	-0.2245144
-4.284798	<code>{0,time,medium}</code>"	-0.1427003
-4.284798	<code>{1}</code>"	-0.1427003
-4.284798	<code>{2}</code>"	-0.1427003
-4.284798	<code>{3}</code>"	-0.1427003
-4.284798	<code>{4}</code>"	-0.1427003
-4.284798	<code>{5}</code>"	-0.1427003
-99	<s>	-2.256283
-4.284798	<td>"	-0.1427003
-4.446146	<unk>
-1.279857	=	-0.447729
-2.151157	==	-0.602165
-4.284798	=\""	-0.1427003
-3.09987	>	-0.2814571
-3.139013	>=	-0.2266358
-3.501419	?	-0.1446948
-4.180058	?"	-0.1497217
-4.284798	?>\r\n"	-0.1427003
-3.84166	A	-0.1454952
-4.284798	A1"	-0.1427003
-4.180058	ABSOLUTE_DATE_AND_TIME_PAT	-0.1427003
-4.180058	ABSOLUTE_FORMAT	-0.1427003
-4.180058	ABSOLUTE_TIME_PAT	-0.1427003
-4.180058	ABSOLUTE_TIME_PATTERN	-0.1427003
-4.180058	ABS_TIME_DATE_FORMAT	-0.1427003
-4.180058	ACCEPT	-0.1427003
-4.121988	ACCEPT_FILE	-0.1473686
-4.121988	ACCEPT_FILTERED	-0.1473686
-4.121988	ACCEPT_ON_MATCH_OPTION	-0.1427003
-4.180058	ACCEPT_WITNESS	-0.1427003
-4.284798	ACTION	-0.1427003
-4.284798	ACTION_PERFORMED	-0.1427003
-4.180058	ADDITIVITY_ATTR	-0.1427003
-4.121988	ADDITIVITY_PREFIX	-0.1473686
-4.180058	ADDRESS_PARSE_FAILURE	-0.1427003
-4.180058	ADD_APPENDER	-0.1427003
-4.121988	ALL	-0.1454952
-3.959588	ALL_INT	-0.1427003
-4.180058	APPENDER_PREFIX	-0.1427003
-4.121988	APPENDER_REF_TAG	-0.1427003
-4.180058	APPENDER_TAG	-0.1427003
-4.284798	APPROVE_OPTION	-0.1427003
-4.284798	APRIL	-0.1427002
-4.284798	ARRAY_SIZE	-0.1427003
-4.284798	ARRAY_SIZE\n"	-0.1427003
-4.121988	ATTRIBUTE_DELIMITER	-0.1427003
-4.284798	AUGUST	-0.1427002
-4.180058	AUTO_ACKNOWLEDGE	-0.1427003
-4.180058	AWTEventMulticaster	-0.1427003
-4.121988	AbsoluteDateAndTimeFilter	-0.1427003
-3.672694	AbsoluteTimeDateFormat	-0.1466986
-4.121988	AbsoluteTimeFilter	-0.1427003
-4.180058	AbstractAction	-0.1427003
-4.180058	AbstractDynamicMBean	-0.1473686
-4.180058	AbstractTableModel	-0.1427003
-3.84166	ActionEvent	-0.1427003
-3.84166	ActionListener	-0.1427003
-3.84166	AdapterLogRecord	-0.1473686
-4.284798	Adding	-0.1427003
-4.180058	AddressException	-0.1427003
-3.959588	Adjustable	-0.1461968
-4.180058	AdjustmentEvent	-0.1427003
-4.180058	AdjustmentListener	-0.1427003
-4.121988	Agent	-0.1427003
-3.749011	All	-0.2734211
-3.378909	Appender	-0.1923916
-4.284798	Appender.	-0.1427003
-3.749011	AppenderAttachable	-0.1473686
-3.749011	AppenderAttachableImpl	-0.1450282
-3.749011	AppenderDynamicMBean	-0.1450281
-3.959588	AppenderFinalizer	-0.1461968
-4.284798	AppenderMBean	-0.1427003
-3.84166	AppenderSkeleton	-0.181048
-4.284798	ArrayIndexOutOfBoundsException	-0.1427002
-3.749011	ArrayList	-0.1427003
-3.959588	Arrays	-0.2081406
-4.121988	Assert	-0.1473686
-3.672694	AsyncAppender	-0.1458069
-3.959588	AsyncAppenderTestCase	-0.1461968
-3.959588	Attribute	-0.1427002
-3.84166	AttributeList	-0.1427002
-4.121988	AttributeNotFoundException	-0.1427003
-3.84166	Attributes	-0.1454952
-4.180058	AttributesRenderer	-0.1427003
-4.121988	Authenticator	-0.1427003
-4.180058	B	-0.1427002
-4.284798	B1_NULL	-0.1427003
-4.284798	B2_NULL	-0.1427003
-4.284798	BASIC_PAT	-0.1427003
-4.284798	BCC	-0.1427003
-3.84166	BIGBUF_LEN	-0.1454952
-4.121988	BLUE	-0.1473686
-4.284798	BOLD	-0.1427003
-4.121988	BUF_SIZE	-0.1427003
-4.180058	BUNDLE_NAME	-0.1427002
-4.284798	BUTTON3_MASK	-0.1427003
-4.284798	Baby,	-0.1427003
-3.959588	BadMessage	-0.1461968
-3.84166	BadStringifier	-0.1454952
-4.284798	Bart	-0.1427003
-4.284798	Bart,	-0.1427003
-3.959588	BasicConfigurator	-0.1427002
-4.121988	BasicPatternConverter	-0.1473686
-4.121988	BeanInfo	-0.1473686
-3.959588	BlockableVectorAppender	-0.1461968
-3.607805	Boolean	-0.3983598
-4.180058	BorderFactory	-0.1427003
-4.121988	BorderLayout	-0.1427003
-3.749011	BoundedFIFO	-0.1877819
-4.121988	BoundedFIFOTestCase	-0.1473686
-3.749011	BridgePatternConverter	-0.1473686
-4.121988	BridgePatternParser	-0.1473686
-4.121988	BufferedInputStream	-0.1427003
-3.959588	BufferedReader	-0.1427003
-4.180058	BufferedWriter	-0.1427003
-4.180058	Byte	-0.1427003
-3.959588	ByteArrayInputStream	-0.1427003
-3.959588	ByteArrayOutputStream	-0.1427003
-4.284798	C"	-0.1427003
-3.959588	CATEGORY	-0.1461968
-4.180058	CATEGORY_DELIMITER	-0.1427002
-4.180058	CATEGORY_FACTORY_TAG	-0.1427003
-4.180058	CATEGORY_PREFIX	-0.1427003
-4.284798	CC	-0.1427003
-4.180058	CDATA_EMBEDED_END	-0.1427003
-4.121988	CDATA_END	-0.1427003
-4.180058	CDATA_END_LEN	-0.1427003
-4.180058	CDATA_PSEUDO_END	-0.1427003
-4.180058	CDATA_START	-0.1427003
-4.284798	CENTER	-0.1427003
-4.180058	CHICAGO	-0.1427003
-4.121988	CLASS_ATTR	-0.1427003
-4.284798	CLASS_LOCATION_CONVERTER	-0.1427003
-4.284798	CLOSE_FAILURE	-0.1427003
-4.180058	COLORLEVEL	-0.1427003
-4.180058	COLUMN	-0.1427003
-4.180058	COL_NAMES	-0.1427002
-4.284798	COMMENT_NODE	-0.1427002
-4.180058	CONFIG	-0.1427002
-4.121988	CONFIGURATION_TAG	-0.1427003
-4.121988	CONFIGURATOR_CLASS_KEY	-0.1427003
-4.121988	CONFIG_DEBUG_ATTR	-0.1427003
-4.121988	CONFIG_DEBUG_KEY	-0.1427003
-4.180058	CONFIG_FILE_EXT	-0.1427003
-4.180058	CONFIG_FILE_NAME	-0.1427003
-4.121988	CONVERTER_STATE	-0.1427003
-3.749011	CT	-0.1466986
-3.672694	CachedDateFormat	-0.1466986
-3.959588	CachedDateFormatTest	-0.1461968
-3.959588	CachedTimestamp	-0.1461968
-3.749011	Calendar	-0.2368717
-4.180058	Categories"	-0.1497217
-3.313007	Category	-0.18412
-4.180058	CategoryAbstractCellEditor	-0.1427003
-3.84166	CategoryElement	-0.1446948
-4.180058	CategoryExplorerLogRecordFilter	-0.1427003
-3.607805	CategoryExplorerModel	-0.169184
-3.749011	CategoryExplorerTree	-0.1446948
-4.121988	CategoryImmediateEditor	-0.1473686
-3.749011	CategoryKey	-0.1466986
-3.456631	CategoryNode	-0.1959862
-3.84166	CategoryNodeEditor	-0.1483083
-4.121988	CategoryNodeEditorRenderer	-0.1427003
-3.672694	CategoryNodeRenderer	-0.181048
-3.672694	CategoryPath	-0.181048
-4.121988	CategoryPatternConverter	-0.1473686
-4.121988	CategoryTest	-0.1427003
-4.121988	CellEditorListener	-0.1454952
-3.749011	Chain	-0.1466986
-4.121988	ChangeEvent	-0.1427003
-4.121988	CharArrayWriter	-0.1427003
-3.672694	Character	-0.3403679
-4.284798	Chocolate."	-0.1427003
-3.378909	Class	-0.2279782
-4.284798	ClassCastException	-0.1427002
-3.749011	ClassLoader	-0.1446948
-4.284798	ClassLoader.getSystemResource()."	-0.1427003
-3.749011	ClassNamePatternConverter	-0.1852139
-4.121988	ClassNotFoundException	-0.1454952
-4.284798	ClassNotFoundException,	-0.1427002
-4.284798	Closing	-0.1427003
-4.180058	Code"	-0.1497217
-4.284798	Code/:XXX/"	-0.1427003
-4.284798	Code/TestSuite.java:XXX/"	-0.1427003
-4.180058	CodeSource	-0.1427003
-4.284798	Code\\)"	-0.1427003
-4.180058	Collection	-0.1427003
-4.180058	Collections	-0.1427003
-3.607805	Color	-0.1629275
-4.284798	Color"	-0.1427003
-4.284798	Colors"	-0.1427003
-4.284798	Column"	-0.1427003
-4.284798	Columns"	-0.1427003
-4.121988	Comparator	-0.1427002
-3.959588	Compare	-0.1461968
-4.180058	Compiled	-0.1427003
-3.959588	Component	-0.1427003
-3.84166	ConfigurationManager	-0.1454952
-3.749011	Configurator	-0.1450281
-4.284798	ConnectException	-0.1427002
-3.959588	Connection	-0.1454952
-4.121988	Connector	-0.1427003
-4.284798	Console?"	-0.1427003
-3.959588	ConsoleAppender	-0.1461968
-4.284798	ConsoleAppender?"	-0.1427003
-4.121988	Constructor	-0.1427003
-4.121988	Constructs	-0.2323453
-4.180058	Container	-0.1427003
-4.121988	Context	-0.1454952
-4.284798	Context\">"	-0.1427003
-3.749011	ControlFilter	-0.1461968
-3.84166	ControlPanel	-0.1454952
-4.284798	CoreTestSuite	-0.1427002
-4.284798	CorrelationID="	-0.1427003
-3.959588	CountingAppender	-0.1452404
-3.959588	CountingHierarchyEventListener	-0.1461968
-3.84166	CountingQuietWriter	-0.1454952
-4.180058	CustomErrorHandler	-0.1427003
-3.672694	CustomLevel	-0.1466986
-3.959588	CustomLevelTestCase	-0.1461968
-3.959588	CustomLogger	-0.1461968
-4.180058	CustomLoggerFactory	-0.1427003
-4.121988	CustomizedLogLevels	-0.1427003
-3.607805	CyclicBuffer	-0.1760652
-4.121988	CyclicBufferTestCase	-0.1473686
-4.121988	DATE	-0.1461968
-4.180058	DATE_AND_TIME_DATE_FORMAT	-0.1427003
-4.180058	DATE_AND_TIME_FORMAT	-0.1427003
-4.180058	DATE_AND_TIME_PATTERN	-0.1427003
-4.180058	DATE_DELIMITER	-0.1427002
-4.180058	DATE_FORMATTER	-0.1427003
-3.959588	DATE_FORMAT_OPTION	-0.1461968
-4.284798	DAY_OF_MONTH	-0.1427003
-4.284798	DAY_OF_WEEK	-0.1427003
-4.180058	DEB	-0.1427003
-3.84166	DEBUG	-0.168049
-3.84166	DEBUG_INT	-0.1446948
-4.121988	DEBUG_KEY	-0.1427003
-4.284798	DECEMBER	-0.1427002
-3.84166	DEFAULT	-0.1942398
-4.121988	DEFAULT_BUFFER_SIZE	-0.1427003
-4.121988	DEFAULT_CONFIGURATION_FILE	-0.1473686
-4.121988	DEFAULT_CONFIGURATION_KEY	-0.1427003
-3.959588	DEFAULT_CONVERSION_PATTERN	-0.1461968
-4.121988	DEFAULT_DELAY	-0.1427003
-3.959588	DEFAULT_INIT_OVERRIDE_KEY	-0.1427003
-4.180058	DEFAULT_MAX_SIZE	-0.1427003
-4.180058	DEFAULT_PORT	-0.1427003
-4.180058	DEFAULT_RECONNECTION_DELAY	-0.1427003
-4.180058	DEFAULT_SIZE	-0.1427003
-4.121988	DEFAULT_XML_CONFIGURATION_FILE	-0.1473686
-4.180058	DELIM_START	-0.1427002
-4.180058	DELIM_START_LEN	-0.1427003
-4.180058	DELIM_STOP	-0.1427002
-4.180058	DELIM_STOP_LEN	-0.1427003
-4.180058	DENY	-0.1427003
-4.121988	DENY_FILE	-0.1473686
-4.121988	DENY_FILTERED	-0.1473686
-4.180058	DENY_WITNESS	-0.1427003
-4.121988	DETAILED_VIEW	-0.1427003
-4.180058	DIGITS	-0.1427003
-4.180058	DISPLAY_FONT	-0.1427003
-3.749011	DOMConfigurator	-0.1760652
-4.121988	DOMTestCase	-0.1427003
-4.121988	DOT_STATE	-0.1427003
-4.284798	DO_NOTHING_ON_CLOSE	-0.1427003
-4.180058	DRFATestCase	-0.1427003
-4.284798	DTD."	-0.1427003
-4.121988	DUMP	-0.1473686
-3.551363	DailyRollingFileAppender	-0.2272178
-4.284798	Danger	-0.1427003
-4.121988	DataInputStream	-0.1427003
-4.121988	DataOutputStream	-0.1427002
-3.959588	DatagramPacket	-0.1427003
-3.84166	DatagramSocket	-0.1454952
-3.456631	Date	-0.1670137
-3.378909	DateFormat	-0.2208303
-3.84166	DateFormatManager	-0.1427003
-4.180058	DateFormatSymbols	-0.1427003
-3.672694	DateLayout	-0.1446948
-3.84166	DateLayoutTest	-0.1450281
-4.180058	DatePattern	-0.1427003
-3.672694	DatePatternConverter	-0.181048
-4.121988	DateTimeDateFormat	-0.1473686
-4.284798	David	-0.1427003
-4.121988	DefaultCategoryFactory	-0.1473686
-4.180058	DefaultEvaluator	-0.1427003
-4.180058	DefaultHandler	-0.1427003
-3.84166	DefaultLF5Configurator	-0.1454952
-4.180058	DefaultMutableTreeNode	-0.1427003
-4.121988	DefaultRenderer	-0.1473686
-3.959588	DefaultRepositorySelector	-0.1461968
-4.180058	DefaultTableCellRenderer	-0.1427003
-4.180058	DefaultTableModel	-0.1427003
-3.749011	DefaultThrowableRenderer	-0.1473686
-4.121988	DefaultThrowableRendererTest	-0.1427003
-4.180058	DefaultTreeCellEditor	-0.1427003
-4.180058	DefaultTreeCellRenderer	-0.1427003
-4.180058	DefaultTreeModel	-0.1427003
-4.121988	DefaultZoneDateFormat	-0.1473686
-4.284798	Defaulting	-0.1427003
-4.180058	DeliveryMode	-0.1427003
-4.121988	DenyAllFilter	-0.1427003
-4.180058	DerivedPatternLayout	-0.1427003
-4.284798	Descendant	-0.1427003
-4.284798	Destination="	-0.1427003
-3.959588	DetailPanel	-0.1461968
-4.284798	Diagnostic	-0.1427003
-3.749011	DiagnosticContext	-0.1466986
-3.749011	Dimension	-0.1427003
-3.84166	DiscardSummary	-0.1454952
-3.959588	Dispatcher	-0.1942398
-4.284798	Doc?"	-0.1427003
-3.749011	Document	-0.1877819
-4.121988	DocumentBuilder	-0.1427003
-3.959588	DocumentBuilderFactory	-0.1427002
-4.284798	DocumentBuilderFactory."	-0.1427003
-4.180058	DocumentEvent	-0.1427003
-4.180058	DocumentListener	-0.1427003
-3.959588	Double	-0.1427003
-4.121988	DriverManager	-0.1473686
-4.121988	DropElementAbbreviator	-0.1473686
-4.284798	Dumpsville.	-0.1427003
-4.284798	DynamicLayoutMBean	-0.1427003
-4.180058	DynamicMBean	-0.1427003
-4.284798	EAST	-0.1427003
-4.284798	EEEEEE"	-0.1427003
-4.284798	ELEMENT_NODE	-0.1427003
-4.121988	EMPTY_LIST	-0.1427003
-4.180058	EMPTY_STR	-0.1427003
-4.284798	ENGLISH	-0.1427003
-4.121988	ENTRY	-0.1427003
-4.121988	ENTRY"	-0.2323453
-4.284798	EOF,	-0.1427002
-4.180058	EOFException	-0.1473686
-4.180058	ERFATestCase	-0.1427003
-4.180058	ERR	-0.1427003
-3.84166	ERROR	-0.1722289
-4.180058	ERROR_HANDLER_TAG	-0.1427003
-3.959588	ERROR_INT	-0.1454952
-4.284798	ERROR_MESSAGE	-0.1427003
-4.284798	ERROR_PREFIX	-0.1427003
-4.180058	ERR_PREFIX	-0.1427003
-4.121988	ESCAPE_CHAR	-0.1427003
-4.180058	EXCEPTION1	-0.1427002
-4.180058	EXCEPTION2	-0.1427002
-4.180058	EXCEPTION3	-0.1427002
-4.180058	EXCEPTION4	-0.1427002
-4.180058	EXCEPTION5	-0.1427002
-4.121988	EXPANDED	-0.1473686
-4.284798	EffectiveDate]]></faultstring><envelope>"	-0.1427003
-3.749011	Element	-0.1571781
-4.284798	Empty	-0.1427003
-4.121988	EmptyThrowable	-0.1473686
-3.959588	EnhancedJunitTestRunnerFilter	-0.1461968
-3.959588	EnhancedLineNumberFilter	-0.1461968
-4.180058	EnhancedMyPatternLayout	-0.1427003
-3.607805	EnhancedPatternLayout	-0.1461968
-4.121988	EnhancedPatternLayoutTest	-0.1427003
-4.180058	EnhancedPatternLayoutTestCase	-0.1427003
-4.121988	EnhancedThrowableRenderer	-0.1473686
-4.121988	EnhancedThrowableRendererTest	-0.1427003
-4.180058	EntityResolver	-0.1427003
-4.284798	Entry	-0.1427003
-3.551363	Enumeration	-0.1545231
-4.284798	Error	-0.1427003
-4.121988	ErrorCode	-0.1427003
-3.501419	ErrorHandler	-0.2561582
-4.284798	ErrorHandler."	-0.1427003
-4.180058	ErrorHandlerTestCase	-0.1427003
-3.607805	EventDetails	-0.2044004
-4.121988	EventListenerList	-0.1427003
-4.180058	EventObject	-0.1427003
-3.416034	Exception	-0.2171588
-4.180058	Exception"	-0.1497217
-3.749011	ExitAction	-0.1473686
-4.180058	Exiting	-0.1427002
-4.284798	Expiration="	-0.1427003
-3.672694	ExternallyRolledFileAppender	-0.1722289
-4.284798	F"	-0.1427003
-4.284798	FACILITY_OI	-0.1427003
-4.180058	FACTORY_PREFIX	-0.1427003
-4.284798	FAIL."	-0.1427003
-4.284798	FALLBACK	-0.1427003
-4.284798	FALSE	-0.1427003
-3.84166	FATAL	-0.169184
-4.180058	FATAL_CHILDREN	-0.1427003
-3.959588	FATAL_INT	-0.1450281
-4.284798	FEBRUARY	-0.1427002
-4.121988	FILENAME_PATTERN_RULES	-0.1473686
-4.284798	FILES_ONLY	-0.1427003
-4.121988	FILE_LOCATION_CONVERTER	-0.1427003
-4.180058	FILE_OPEN_FAILURE	-0.1427003
-4.121988	FILTERED	-0.1473686
-4.121988	FILTERED_A1	-0.1483083
-4.121988	FILTERED_A2	-0.1483083
-4.180058	FILTER_LOOP	-0.1427003
-4.180058	FILTER_TAG	-0.1427003
-4.180058	FINE	-0.1427002
-4.180058	FINER	-0.1427002
-4.121988	FINEST	-0.1427003
-4.180058	FIRST_CATEGORY_NAME	-0.1427003
-4.180058	FLUSH_FAILURE	-0.1427003
-4.180058	FORMATTER	-0.1427003
-4.180058	FQCN	-0.1427002
-4.284798	FULL	-0.1427003
-4.121988	FULL_LOCATION_CONVERTER	-0.1427003
-4.180058	Factory	-0.1427002
-4.121988	FactoryConfigurationError	-0.1427003
-4.180058	FallbackErrorHandler	-0.1427003
-4.284798	FallbackErrorHandler"	-0.1427003
-3.959588	FieldPosition	-0.1427002
-3.501419	File	-0.1697014
-3.501419	FileAppender	-0.1634371
-4.180058	FileAppenderTest	-0.1427002
-4.121988	FileDatePatternConverter	-0.1427003
-3.84166	FileInputStream	-0.1427002
-3.749011	FileLocationPatternConverter	-0.1450282
-3.959588	FileNotFoundException	-0.1427003
-3.84166	FileOutputStream	-0.144445
-4.121988	FileReader	-0.1427002
-3.84166	FileWatchdog	-0.1427002
-4.121988	FileWriter	-0.1427003
-3.229795	Filter	-0.210201
-3.959588	FilterBasedTriggeringPolicy	-0.1427003
-4.180058	FilterWriter	-0.1427003
-3.672694	FilteredLogTableModel	-0.1760652
-3.959588	FixedWindowRollingPolicy	-0.1427003
-3.959588	Float	-0.1427003
-4.121988	FlowLayout	-0.1427003
-3.672694	Font	-0.1427003
-4.284798	Font:	-0.1427003
-4.180058	FontMetrics	-0.1427003
-3.416034	FormattingInfo	-0.1854606
-4.121988	FormattingInfoTest	-0.1427003
-3.749011	FullLocationPatternConverter	-0.1450282
-4.180058	GENERIC	-0.1427003
-4.180058	GENERIC_FAILURE	-0.1427003
-4.180058	GMT	-0.1427003
-4.121988	GREEN	-0.1473686
-4.180058	Graphics	-0.1427003
-4.180058	GraphicsEnvironment	-0.1427003
-3.959588	Greeter	-0.1461968
-4.180058	GregorianCalendar	-0.1427003
-3.749011	GridBagConstraints	-0.1446948
-3.84166	GridBagLayout	-0.1427003
-4.121988	HALF_DAY	-0.1461968
-4.284798	HH.'log'"	-0.1427003
-4.284798	HH:mm:ss	-0.1427003
-4.284798	HH:mm:ss"	-0.1427003
-4.284798	HH:mm:ss,S"	-0.1427003
-4.284798	HH:mm:ss,SS	-0.1427003
-4.121988	HH:mm:ss,SSS"	-0.1973883
-4.284798	HH:mm:ss.SSS	-0.1427003
-4.284798	HORIZONTAL	-0.1427003
-4.284798	HOUR_OF_DAY	-0.1427003
-4.180058	HTML	-0.1427002
-3.749011	HTMLLayout	-0.1446948
-4.121988	HTMLLayoutTest	-0.1427003
-4.180058	HT_SIZE	-0.1427003
-4.121988	HUP	-0.1461968
-4.121988	HUPNode	-0.1473686
-4.284798	HUPNode."	-0.1427003
-4.121988	HashMap	-0.1427003
-3.501419	Hashtable	-0.1707052
-4.284798	Hiearchy.overrideAsNeeded	-0.1427003
-4.284798	Hiearchy.setDisableOverride	-0.1427003
-3.607805	Hierarchy	-0.1479557
-3.672694	HierarchyDynamicMBean	-0.1446948
-3.672694	HierarchyEventListener	-0.1738887
-3.959588	HierarchyThresholdTestCase	-0.1461968
-4.284798	Homer	-0.1427003
-4.284798	HtmlAdaptorServer	-0.1427003
-4.284798	Hutz,	-0.1427003
-4.180058	I	-0.1427003
-4.284798	I'm	-0.1427003
-4.284798	IBM	-0.1427003
-4.180058	INF	-0.1427003
-3.672694	INFO	-0.1667085
-4.284798	INFORMATION_MESSAGE	-0.1427003
-3.959588	INFO_INT	-0.1454952
-4.284798	INFO|	-0.1427002
-4.180058	INF_ERR	-0.1427003
-4.180058	INF_ERR_UNDEF	-0.1427003
-4.180058	INF_UNDEF	-0.1427003
-4.180058	INHERITED	-0.1427003
-4.284798	INITIAL_CONTEXT_FACTORY	-0.1427003
-4.284798	INITIATING	-0.1427003
-4.180058	INNER	-0.1427003
-3.229795	INSTANCE	-0.6348117
-4.121988	INTERNAL_DEBUG_ATTR	-0.1427003
-4.121988	INTERNAL_ROOT_NAME	-0.1427003
-3.84166	IOException	-0.1651785
-4.284798	IOException,	-0.1427002
-4.121988	ISO8601DateFormat	-0.1473686
-4.121988	ISO8601Filter	-0.1427003
-4.180058	ISO8601_DATE_FORMAT	-0.1427003
-4.180058	ISO8601_FORMAT	-0.1427003
-4.121988	ISO8601_PAT	-0.1473686
-4.121988	ISO8601_PATTERN	-0.1427003
-4.180058	Icon	-0.1427003
-4.284798	Ignoring	-0.1427003
-4.180058	IllegalAccessException	-0.1427003
-4.121988	IllegalArgumentException	-0.1427003
-4.180058	IllegalStateException	-0.1427003
-3.959588	ImageIcon	-0.1427002
-3.607805	InetAddress	-0.168049
-4.284798	InetAddress."	-0.1427003
-4.284798	InheritableThreadLocal	-0.1427002
-3.84166	InitUsingDefaultConfigurator	-0.1454952
-4.284798	InitUsingDefaultConfigurator."	-0.1427003
-4.121988	InitUsingLog4JProperties	-0.1427003
-3.959588	InitUsingMultipleAppenders	-0.1461968
-3.959588	InitUsingPropertiesFile	-0.1461968
-3.959588	InitUsingXMLPropertiesFile	-0.1461968
-4.180058	InitialContext	-0.1427003
-4.284798	InitialContextFactoryName	-0.1427003
-3.959588	InnerInitUsingDefaultConfigurator	-0.1461968
-4.121988	InnerTrivial	-0.1473686
-3.84166	InputSource	-0.1446948
-3.551363	InputStream	-0.1456956
-3.959588	InputStreamReader	-0.1427003
-4.180058	Insets	-0.1427003
-4.180058	InstanceAlreadyExistsException	-0.1427003
-4.180058	InstanceNotFoundException	-0.1427003
-4.284798	InstantiationException	-0.1427003
-3.551363	Integer	-0.2610389
-3.749011	IntegerPatternConverter	-0.1450282
-3.959588	InternetAddress	-0.1427003
-4.121988	InternetHeaders	-0.1427003
-3.959588	InterruptedException	-0.1427002
-4.121988	InterruptedIOException	-0.1446948
-4.121988	IntrospectionException	-0.1427003
-4.121988	Introspector	-0.1473686
-4.284798	Invalid	-0.1427003
-4.180058	InvalidAttributeValueException	-0.1427003
-4.121988	InvocationTargetException	-0.1446948
-4.284798	Is	-0.1427003
-3.672694	Iterator	-0.1571781
-4.284798	JANUARY	-0.1427003
-3.84166	JButton	-0.1427003
-3.959588	JCheckBox	-0.1427002
-3.672694	JCheckBoxMenuItem	-0.1450281
-4.180058	JColorChooser	-0.1427003
-3.672694	JComboBox	-0.1439685
-4.180058	JComponent	-0.1427003
-4.180058	JDBCAppender	-0.1427003
-4.284798	JDK	-0.1427003
-4.180058	JDK14_LOG_LEVELS	-0.1427003
-4.180058	JDialog	-0.1427003
-4.121988	JEditorPane	-0.1427003
-3.749011	JFileChooser	-0.1450281
-3.672694	JFrame	-0.1427003
-3.84166	JLabel	-0.1427003
-4.284798	JMDNS"	-0.1427003
-4.180058	JMException	-0.1427003
-4.284798	JMS	-0.1427003
-3.84166	JMSAppender	-0.1454952
-4.180058	JMSException	-0.1427003
-3.84166	JMSSink	-0.1483083
-4.284798	JMSSink."	-0.1427003
-3.749011	JMenu	-0.1564142
-3.84166	JMenuBar	-0.1454952
-3.672694	JMenuItem	-0.148976
-3.749011	JOptionPane	-0.3842318
-3.672694	JPanel	-0.1427003
-4.121988	JPopupMenu	-0.1427003
-3.672694	JScrollPane	-0.144445
-3.749011	JSplitPane	-0.1427003
-3.672694	JTable	-0.174189
-3.749011	JTextArea	-0.144445
-3.959588	JTextField	-0.1427003
-3.959588	JToolBar	-0.1427003
-3.959588	JTree	-0.1427003
-4.284798	JULY	-0.1427002
-4.284798	JUNE	-0.1427002
-4.284798	JmDNS	-0.1427003
-4.121988	JunitTestRunnerFilter	-0.1427003
-4.284798	Just	-0.1427003
-4.180058	KeyAdapter	-0.1427003
-4.121988	KeyEvent	-0.1427003
-4.180058	KeyStroke	-0.1427003
-4.284798	Kill	-0.1427002
-4.284798	Krabappel."	-0.1427003
-4.180058	LAYOUT_TAG	-0.1427003
-4.284798	LEFT	-0.1427003
-4.121988	LEN	-0.1427003
-3.749011	LENGTH	-0.1446948
-4.180058	LETHAL	-0.1427002
-3.959588	LETHAL_INT	-0.1427003
-4.121988	LETHAL_STR	-0.1427003
-3.959588	LEVEL	-0.1461968
-4.121988	LEVEL_CONVERTER	-0.1427003
-4.180058	LEVEL_FOUR	-0.1427002
-4.121988	LEVEL_ONE	-0.1427003
-4.180058	LEVEL_TAG	-0.1427003
-4.180058	LEVEL_THREE	-0.1427002
-4.180058	LEVEL_TWO	-0.1427002
-3.84166	LF5Appender	-0.1473686
-4.180058	LF5SwingUtils	-0.1427002
-4.121988	LINE_LOCATION_CONVERTER	-0.1427003
-3.959588	LINE_SEP	-0.1461968
-4.180058	LINE_SEP_LEN	-0.1427003
-4.121988	LITERAL_STATE	-0.1427003
-4.180058	LOCATION	-0.1427002
-4.180058	LOCATION_DELIMITER	-0.1427002
-4.284798	LOCATION_INFO_OPTION	-0.1427003
-4.121988	LOG	-0.1473686
-4.284798	LOG4J	-0.1427003
-4.180058	LOG4J_LOG_LEVELS	-0.1427003
-4.180058	LOGGER	-0.1427003
-4.180058	LOGGER_FACTORY_KEY	-0.1427002
-4.180058	LOGGER_FACTORY_TAG	-0.1427003
-4.180058	LOGGER_PREFIX	-0.1427003
-4.121988	LOGGER_REF	-0.1427003
-3.959588	LOG_AUTH	-0.1427003
-3.959588	LOG_AUTHPRIV	-0.1427003
-3.959588	LOG_CRON	-0.1427003
-3.959588	LOG_DAEMON	-0.1427003
-3.959588	LOG_FTP	-0.1427003
-3.959588	LOG_KERN	-0.1427003
-3.959588	LOG_LOCAL0	-0.1427003
-3.959588	LOG_LOCAL1	-0.1427003
-3.959588	LOG_LOCAL2	-0.1427003
-3.959588	LOG_LOCAL3	-0.1427003
-3.959588	LOG_LOCAL4	-0.1427003
-3.959588	LOG_LOCAL5	-0.1427003
-3.959588	LOG_LOCAL6	-0.1427003
-3.959588	LOG_LOCAL7	-0.1427003
-3.959588	LOG_LPR	-0.1427003
-3.959588	LOG_MAIL	-0.1427003
-3.959588	LOG_NEWS	-0.1427003
-3.959588	LOG_SYSLOG	-0.1427003
-3.84166	LOG_USER	-0.1454952
-3.959588	LOG_UUCP	-0.1427003
-4.121988	Label	-0.1427003
-4.121988	Last	-0.1473686
-4.121988	LastOnlyAppender	-0.1427003
-3.378909	Layout	-0.3231208
-4.284798	Layout.	-0.1427003
-3.749011	LayoutDynamicMBean	-0.1450281
-4.284798	LayoutMBean:"	-0.1427003
-3.84166	LayoutTest	-0.1450281
-4.284798	Leaving	-0.1427003
-3.159992	Level	-0.2328586
-4.284798	Level"	-0.1427003
-4.284798	Level)"	-0.1427003
-4.284798	Level."	-0.1427003
-4.284798	Level:"	-0.1427003
-3.959588	LevelMatchFilter	-0.1427003
-4.121988	LevelMatchFilterTestCase	-0.1473686
-3.749011	LevelPatternConverter	-0.1450282
-3.959588	LevelRangeFilter	-0.1427003
-4.121988	LevelTest	-0.1427003
-3.749011	LineLocationPatternConverter	-0.1450282
-4.121988	LineNumberFilter	-0.1427003
-4.121988	LineNumberReader	-0.1427002
-3.749011	LineSeparatorPatternConverter	-0.1450282
-3.84166	LinkedList	-0.1427003
-4.284798	Lisa	-0.1427003
-3.607805	List	-0.1509141
-4.180058	ListSelectionEvent	-0.1427002
-4.180058	ListSelectionListener	-0.1427003
-3.84166	ListSelectionModel	-0.1461968
-4.284798	ListVsVector	-0.1427002
-4.180058	ListenerNotFoundException	-0.1427003
-3.84166	LiteralPatternConverter	-0.3050506
-3.84166	LoadXMLAction	-0.1454952
-4.121988	Loader	-0.1427003
-4.284798	Loader.getResource.	-0.1427003
-3.456631	Locale	-0.2145331
-4.180058	Location"	-0.1497217
-3.501419	LocationInfo	-0.1608743
-4.121988	LocationInfoTest	-0.1473686
-4.121988	LocationPatternConverter	-0.1473686
-3.959588	Log	-0.1427003
-4.284798	Log4J	-0.1427003
-3.84166	Log4JLogRecord	-0.1454952
-4.180058	Log4jEntityResolver	-0.1427003
-3.456631	LogBrokerMonitor	-0.1461968
-4.121988	LogBrokerMonitorWindowAdaptor	-0.1473686
-3.959588	LogCapture	-0.1461968
-3.749011	LogEvent	-0.1450281
-4.284798	LogFactor5"	-0.1427003
-4.121988	LogFactor5Dialog	-0.1427003
-3.84166	LogFactor5ErrorDialog	-0.1454952
-3.959588	LogFactor5InputDialog	-0.1461968
-3.84166	LogFactor5LoadingDialog	-0.1454952
-3.749011	LogFileParser	-0.1473686
-3.182036	LogLevel	-0.2158089
-4.284798	LogLevel."	-0.1427003
-3.749011	LogLevelFormatException	-0.1450281
-4.180058	LogLevels"	-0.1497217
-3.501419	LogLog	-0.5366625
-4.121988	LogLogTest	-0.1427003
-3.959588	LogMF	-0.1461968
-3.456631	LogManager	-0.5366625
-4.121988	LogManagerTest	-0.1427003
-3.607805	LogMonitorAdapter	-0.1458069
-3.416034	LogRecord	-0.2005179
-4.284798	LogRecord."	-0.1427003
-3.551363	LogRecordFilter	-0.1452404
-4.284798	LogRecords."	-0.1427003
-4.284798	LogRecords:	-0.1427003
-3.959588	LogSF	-0.1461968
-3.672694	LogTable	-0.1466986
-3.501419	LogTableColumn	-0.1553285
-4.284798	LogTableColumn."	-0.1427003
-3.749011	LogTableColumnFormatException	-0.1450281
-4.121988	LogTableListSelectionListener	-0.1473686
-4.180058	LogTableModel	-0.1427003
-4.180058	LogTableRowRenderer	-0.1427003
-3.84166	LogXF	-0.1483083
-3.182036	Logger	-0.2348555
-4.284798	Logger."	-0.1427003
-4.284798	Logger:"	-0.1427003
-3.84166	LoggerDynamicMBean	-0.1454952
-3.501419	LoggerFactory	-0.1461968
-3.749011	LoggerPatternConverter	-0.1450282
-3.378909	LoggerRepository	-0.2720813
-4.180058	LoggerTestCase	-0.1427003
-4.284798	Logging	-0.1427003
-3.283462	LoggingEvent	-0.2285749
-3.672694	LoggingEventPatternConverter	-0.1466986
-3.959588	LoggingEventTest	-0.1454952
-3.84166	LoggingReceiver	-0.1454952
-3.749011	Long	-0.2734211
-3.959588	M	-0.1461968
-3.959588	M31	-0.1461968
-4.121988	MAGIC1	-0.1427003
-4.180058	MAGIC2	-0.1427003
-4.180058	MAGICSTRING1	-0.1427003
-4.180058	MAGICSTRING2	-0.1427003
-4.284798	MARCH	-0.1427002
-4.121988	MAX	-0.1427003
-4.121988	MAX_CAPACITY	-0.1427003
-4.180058	MAX_CONNECTIONS	-0.1427003
-4.121988	MAX_STATE	-0.1427003
-4.284798	MAX_VALUE	-0.1427003
-4.284798	MAY	-0.1427002
-4.180058	MBean	-0.1427003
-4.284798	MBean"	-0.1427003
-3.959588	MBeanAttributeInfo	-0.1942398
-4.121988	MBeanConstructorInfo	-0.1461968
-4.121988	MBeanException	-0.1473686
-3.959588	MBeanInfo	-0.1427002
-4.121988	MBeanNotificationInfo	-0.1473686
-3.959588	MBeanOperationInfo	-0.1454952
-3.959588	MBeanParameterInfo	-0.1942398
-4.180058	MBeanRegistration	-0.1427003
-4.121988	MBeanRegistrationException	-0.1427003
-3.959588	MBeanServer	-0.2081405
-4.180058	MBeanServerFactory	-0.1427003
-4.284798	MBeans	-0.1427003
-3.378909	MDC	-0.3319297
-4.284798	MDC-TEST4	-0.1427003
-4.284798	MDC-TEST5	-0.1427003
-4.284798	MDC-TEST6"	-0.1427003
-4.284798	MDC-TEST7"	-0.1427003
-4.284798	MDC-TEST8	-0.1427003
-3.84166	MDCKeySetExtractor	-0.1454952
-4.121988	MDCOrderFilter	-0.1427003
-4.121988	MDCPatternConverter	-0.1473686
-4.284798	MEDIUM	-0.1427003
-4.180058	MESSAGE	-0.1427002
-4.121988	MESSAGE_CONVERTER	-0.1427003
-4.180058	MESSAGE_DELIMITER	-0.1427002
-4.180058	MESSAGE_NUM	-0.1427002
-4.121988	METHOD_LOCATION_CONVERTER	-0.1427003
-4.284798	MILLISECOND	-0.1427003
-4.284798	MINUTE	-0.1427003
-4.284798	MIN_PRIORITY	-0.1427003
-4.121988	MIN_STATE	-0.1427003
-4.284798	MIN_VALUE	-0.1427003
-4.284798	MISSING_LAYOUT	-0.1427003
-4.180058	MMM	-0.1427002
-4.284798	MONTH	-0.1427003
-3.84166	MRUFileManager	-0.1454952
-4.121988	MSG	-0.1473686
-4.180058	MY_COMP	-0.1427003
-4.284798	Machine,\n"	-0.1427003
-4.284798	Machine.\n"	-0.1427003
-4.284798	Maggie	-0.1427003
-3.959588	Main	-0.1461968
-4.180058	MalformedObjectNameException	-0.1427003
-4.180058	MalformedURLException	-0.1427003
-3.456631	Map	-0.1630883
-4.284798	Marge	-0.1427003
-4.121988	Math	-0.2323453
-4.284798	Max	-0.1427003
-4.121988	MaxElementAbbreviator	-0.1473686
-3.2558	Message	-0.3877279
-4.284798	Message"	-0.1427003
-4.284798	Message."	-0.1427003
-4.284798	Message:"	-0.1427003
-4.284798	Message="	-0.1427003
-3.84166	MessageFormat	-0.1852139
-4.284798	MessageID="	-0.1427003
-4.284798	MessageListener	-0.1427002
-3.749011	MessagePatternConverter	-0.1450282
-4.180058	MessageRenderer	-0.1427003
-4.284798	Messages	-0.1427003
-4.180058	Messages"	-0.1473686
-4.121988	MessagingException	-0.1427003
-3.607805	Method	-0.1544369
-4.284798	Method)/"	-0.1427003
-3.749011	MethodLocationPatternConverter	-0.1450282
-3.84166	MethodUnion	-0.1454952
-4.180058	Method\\)"	-0.1427003
-4.284798	Method|Unknown	-0.1427003
-4.121988	MimeBodyPart	-0.1427003
-4.180058	MimeMessage	-0.1427003
-4.180058	MimeMultipart	-0.1427003
-4.180058	MimeUtility	-0.1427003
-4.121988	MinimumTestCase	-0.1473686
-4.121988	MishandledException	-0.1473686
-4.180058	MissingResourceException	-0.1427002
-3.84166	MockCategory	-0.1454952
-4.121988	MockLayout	-0.1473686
-3.959588	MockThrowableRenderer	-0.1427003
-4.180058	MockTriggeringEventEvaluator	-0.1427003
-4.284798	Monde"	-0.1427003
-4.180058	MouseAdapter	-0.1427003
-3.84166	MouseEvent	-0.1450281
-4.284798	Ms.	-0.1427003
-4.180058	Multipart	-0.1427003
-3.607805	MyLogger	-0.1760652
-3.959588	MyLoggerFactory	-0.1461968
-4.284798	MyLoggerTest	-0.1427002
-4.121988	MyPatternLayout	-0.1473686
-4.121988	MyPatternParser	-0.1473686
-3.672694	MyTableModel	-0.1706671
-3.749011	NA	-0.1779496
-4.121988	NAME	-0.1473686
-4.180058	NAME_ATTR	-0.1427003
-4.284798	NA_LOCATION_INFO	-0.1427003
-3.378909	NDC	-0.2575646
-4.180058	NDC"	-0.1473686
-4.284798	NDC:	-0.1427003
-4.284798	NDC:"	-0.1427003
-3.749011	NDCPatternConverter	-0.1450282
-4.180058	NDCTEXTFILTER	-0.1427003
-4.121988	NDC_CONVERTER	-0.1427003
-4.180058	NDC_DELIMITER	-0.1427002
-4.284798	NDCs"	-0.1427003
-4.180058	NEUTRAL	-0.1427003
-4.284798	NONE	-0.1427003
-4.284798	NON_PERSISTENT	-0.1427002
-4.121988	NOPAbbreviator	-0.1473686
-4.121988	NOPLogger	-0.1473686
-3.959588	NOPLoggerRepository	-0.1427003
-4.284798	NOPWriter	-0.1427003
-4.284798	NORTH	-0.1427003
-4.284798	NOT	-0.1427003
-4.284798	NOVEMBER	-0.1427002
-4.121988	NO_MILLISECONDS	-0.1427003
-4.121988	NTEventLogAppender	-0.1473686
-4.284798	NTEventLogAppenderTest	-0.1427003
-4.180058	NULL	-0.1427003
-4.180058	NULL_ARG	-0.1427003
-4.121988	NULL_DATE_FORMAT	-0.1473686
-4.284798	Name"	-0.1427003
-3.672694	NameAbbreviator	-0.1442508
-4.121988	NameAbbreviatorTest	-0.1427003
-4.180058	NameNotFoundException	-0.1427003
-4.121988	NamePatternConverter	-0.1427003
-4.121988	NameSubstring	-0.1473686
-4.121988	NameSubstringCaller	-0.1473686
-3.84166	NameValue	-0.1454952
-3.959588	NamedNodeMap	-0.2081406
-4.121988	NamedPatternConverter	-0.1427003
-4.180058	Naming	-0.1427003
-4.121988	NamingException	-0.1427003
-4.121988	NastyThrowable	-0.1473686
-4.284798	NegativeArraySizeException	-0.1427003
-4.284798	New	-0.1427003
-4.284798	NewVsSetLen	-0.1427002
-4.284798	Next"	-0.1427003
-4.284798	NoClassDefFoundError	-0.1427002
-4.180058	NoSuchElementException	-0.1427003
-4.180058	NoSuchMethodException	-0.1427003
-3.749011	Node	-0.1635338
-4.121988	NodeList	-0.144445
-4.180058	NotCompliantMBeanException	-0.1427003
-4.121988	NotOverriddenThrowable	-0.1473686
-3.959588	Notification	-0.1427003
-4.180058	NotificationBroadcaster	-0.1427003
-4.121988	NotificationBroadcasterSupport	-0.1427003
-4.180058	NotificationFilter	-0.1427002
-4.121988	NotificationFilterSupport	-0.1427003
-4.121988	NotificationListener	-0.1427003
-3.959588	NullAppender	-0.1450282
-3.672694	NullEnumeration	-0.1446948
-4.121988	NullPointerAppender	-0.1473686
-4.121988	NullPointerException	-0.1473686
-4.121988	NullThrowable	-0.1473686
-4.180058	NullWriter	-0.1427003
-3.84166	Num343PatternConverter	-0.1454952
-4.180058	Number	-0.1427003
-4.284798	Number"	-0.1427003
-4.284798	NumberCruncher	-0.1427002
-4.284798	NumberCruncherClient	-0.1427002
-3.84166	NumberCruncherServer	-0.1454952
-4.284798	NumberCruncherServer."	-0.1427003
-3.84166	NumberFormat	-0.1427002
-4.180058	NumberFormatException	-0.1461968
-4.284798	OCTOBER	-0.1427002
-4.121988	OFF	-0.1454952
-3.959588	OFF_INT	-0.1427003
-4.180058	OK	-0.1427003
-4.284798	OK?"	-0.1427003
-4.284798	OK_CANCEL_OPTION	-0.1427003
-4.284798	OK_OPTION	-0.1427003
-4.121988	OLD_CONFIGURATION_TAG	-0.1427003
-4.180058	ONE_STRING_PARAM	-0.1427003
-4.121988	ORTestCase	-0.1473686
-4.180058	OUTER	-0.1427003
-4.121988	OUTPUT_FILE	-0.1483083
-3.344709	Object	-0.1983003
-3.672694	ObjectInputStream	-0.2163328
-3.959588	ObjectMessage	-0.1454952
-4.284798	ObjectMessage."	-0.1427003
-3.607805	ObjectName	-0.1468995
-4.284798	ObjectName"	-0.1427003
-3.749011	ObjectOutputStream	-0.1677059
-3.501419	ObjectRenderer	-0.1454952
-4.180058	ObjectStreamException	-0.1427003
-4.121988	OnlyOnceErrorHandler	-0.1427003
-4.284798	Opening	-0.1427003
-3.501419	OptionConverter	-0.4070626
-4.121988	OptionConverterTestCase	-0.1473686
-3.551363	OptionHandler	-0.2179863
-3.959588	OutputStream	-0.1454952
-3.959588	OutputStreamWriter	-0.1427002
-4.121988	OverriddenThrowable	-0.1473686
-4.121988	PARAM_ARRAY	-0.1427003
-4.180058	PARAM_TAG	-0.1427003
-4.180058	PAT0	-0.1427003
-4.180058	PAT1	-0.1427002
-4.180058	PAT11a	-0.1427002
-4.180058	PAT11b	-0.1427002
-4.180058	PAT12	-0.1427002
-4.180058	PAT13	-0.1427002
-4.180058	PAT14	-0.1427002
-4.180058	PAT2	-0.1427002
-4.180058	PAT3	-0.1427002
-4.180058	PAT4	-0.1427002
-4.180058	PAT5	-0.1427002
-4.180058	PAT6	-0.1427002
-4.180058	PAT7	-0.1427002
-4.180058	PAT8	-0.1427002
-4.121988	PATH	-0.1473686
-4.121988	PATTERNS	-0.1427002
-4.121988	PATTERN_LAYOUT_RULES	-0.1473686
-4.284798	PATTERN_RULE_REGISTRY	-0.1427003
-4.284798	PAT_MDC_1	-0.1427003
-4.284798	PERSISTENT	-0.1427002
-4.284798	PI	-0.1427003
-4.284798	PLAIN	-0.1427003
-4.284798	PLAIN_MESSAGE	-0.1427003
-4.121988	PORT	-0.1473686
-4.121988	PORT_PROP_NAME	-0.1427003
-4.180058	PREFIX	-0.1427003
-4.180058	PRIORITY_DELIMITER	-0.1427002
-4.180058	PRIORITY_TAG	-0.1427003
-4.284798	PROCEDURE."	-0.1427003
-4.284798	PROVIDER_URL	-0.1427003
-4.284798	PUBLIC	-0.1427003
-4.180058	PUBLIC_ID	-0.1427003
-4.284798	Package	-0.1427003
-3.84166	ParseAction	-0.1942398
-4.121988	ParseException	-0.1427003
-4.121988	ParsePosition	-0.1427003
-4.180058	ParserConfigurationException	-0.1427003
-4.121988	PassingLogRecordFilter	-0.1427003
-4.121988	PasswordAuthentication	-0.1427003
-4.121988	Pattern	-0.1427003
-4.121988	PatternAbbreviator	-0.1473686
-3.84166	PatternAbbreviatorFragment	-0.1473686
-3.416034	PatternConverter	-0.1706671
-4.284798	PatternConverter."	-0.1427003
-3.551363	PatternLayout	-0.1465161
-4.121988	PatternLayoutTest	-0.1427003
-4.121988	PatternLayoutTestCase	-0.1427003
-3.501419	PatternParser	-0.224753
-4.121988	PatternParserTest	-0.1427003
-4.121988	PatternParserTestCase	-0.1473686
-3.959588	Perl5Util	-0.1461968
-4.284798	Population:	-0.1427003
-4.121988	PrintStream	-0.1427003
-3.551363	PrintWriter	-0.1640515
-3.229795	Priority	-0.2357448
-4.284798	Priority="	-0.1427003
-4.121988	PriorityTest	-0.1427003
-4.121988	ProblemLevel	-0.1473686
-4.180058	Processor	-0.1427003
-3.672694	Properties	-0.2593791
-4.284798	Properties"	-0.1427003
-4.284798	Properties:	-0.1427003
-3.84166	PropertiesPatternConverter	-0.1454952
-3.959588	PropertyCallback	-0.1497217
-3.749011	PropertyConfigurator	-0.1788797
-4.121988	PropertyConfiguratorTest	-0.1427003
-3.749011	PropertyDescriptor	-0.2081406
-3.84166	PropertyGetter	-0.1483083
-4.121988	PropertyPrinter	-0.1473686
-3.551363	PropertySetter	-0.2419442
-3.84166	PropertySetterException	-0.1454952
-4.121988	PropertyWatchdog	-0.1461968
-3.749011	ProvisionNode	-0.1487117
-4.284798	Put	-0.1427003
-4.284798	Q"	-0.1427003
-4.284798	QUESTION_MESSAGE	-0.1427003
-3.749011	QuietWriter	-0.1450282
-4.180058	REAP_THRESHOLD	-0.1427003
-4.121988	RECORD_DELIMITER	-0.1427003
-4.121988	RED	-0.1473686
-4.180058	REF_ATTR	-0.1427003
-4.121988	RELATIVE_TIME_CONVERTER	-0.1427003
-4.121988	RELATIVE_TIME_DATE_FORMAT	-0.1461968
-4.180058	RELATIVE_TIME_PAT	-0.1427003
-4.284798	REMAINDER	-0.1427003
-4.180058	RENDERED_CLASS_ATTR	-0.1427003
-4.180058	RENDERER_PREFIX	-0.1427003
-4.180058	RENDERER_TAG	-0.1427003
-4.180058	RENDERING_CLASS_ATTR	-0.1427003
-4.180058	RESET_ATTR	-0.1427003
-4.180058	RESET_FREQUENCY	-0.1427003
-4.180058	RESET_KEY	-0.1427003
-4.121988	RETURN	-0.1427002
-4.121988	RETURN"	-0.2323453
-3.959588	RFATestCase	-0.1427002
-4.180058	ROLL_OVER	-0.1427003
-4.121988	ROOT_CATEGORY_PREFIX	-0.1427003
